  0.10000000E+001 -0.26964905E+001 -0.16897322E+000 -0.12367607E+000 -0.11048153E+000  0.23675702E+000
  0.10000000E+001 -0.24906943E+001 -0.11801366E+000 -0.14066549E+000  0.15619810E+000  0.24106400E+000
  0.10000000E+001 -0.22697630E+001  0.13891180E+000  0.20007063E+000 -0.31566080E-001  0.24560367E+000
  0.10000000E+001 -0.21302833E+001 -0.21663965E-001  0.20134663E+000 -0.14389638E+000  0.24842697E+000
  0.10000000E+001 -0.19104176E+001 -0.14173987E-001 -0.25104807E+000 -0.26240825E-001  0.25281340E+000
  0.10000000E+001 -0.18210845E+001  0.18547790E-001 -0.25212453E+000  0.29952428E-001  0.25457405E+000
  0.10000000E+001 -0.13131479E+001  0.15757759E+000 -0.19760649E+000 -0.77513193E-001  0.26436209E+000
  0.10000000E+001  0.68050187E+000  0.36706544E-001  0.31191864E-001 -0.29580992E+000  0.29970621E+000
  0.10000000E+001  0.37028715E+000 -0.15342828E-001  0.98029880E-001 -0.27726595E+000  0.29448542E+000
  0.10000000E+001 -0.12486405E+001  0.55102449E-001  0.90725320E-001 -0.24344409E+000  0.26557935E+000
  0.10000000E+001 -0.11745321E+001  0.26181051E+000  0.14253110E-002  0.52217806E-001  0.26697092E+000
  0.10000000E+001 -0.11567175E+001 -0.15410872E+000 -0.17771280E+000 -0.12696567E+000  0.26730436E+000
  0.10000000E+001 -0.57162305E+000 -0.21162129E+000  0.60205498E-001  0.16998320E+000  0.27803338E+000
  0.10000000E+001 -0.60775276E+000 -0.17346678E+000  0.73407670E-001 -0.20362185E+000  0.27738289E+000
  0.10000000E+001 -0.72965322E+000  0.11852211E-001 -0.23424070E+000  0.14392040E+000  0.27517678E+000
  0.10000000E+001 -0.69725162E+000 -0.98829965E-001 -0.12825053E+000 -0.22322795E+000  0.27576490E+000
  0.10000000E+001 -0.27357145E+001 -0.23076818E+000  0.48230565E-001  0.90283068E-002  0.23592721E+000
  0.10000000E+001 -0.27955855E+001  0.12652126E+000  0.16662817E+000  0.10625612E+000  0.23465494E+000
  0.10000000E+001 -0.29856363E+001 -0.60998716E-001 -0.22233332E+000  0.30791136E-002  0.23056980E+000
  0.10000000E+001 -0.30941411E+001 -0.10871868E+000 -0.19501714E+000 -0.47179918E-001  0.22820469E+000
  0.10000000E+001 -0.32750644E+001  0.10507382E+000  0.18375468E+000 -0.73904390E-001  0.22420560E+000
  0.10000000E+001 -0.33054294E+001  0.15129530E+000  0.12216818E+000 -0.11022326E+000  0.22352740E+000
  0.10000000E+001 -0.33335092E+001  0.15268378E+000 -0.15601630E+000 -0.45058619E-001  0.22289841E+000
  0.10000000E+001 -0.34366724E+001 -0.31074751E-001  0.16761500E+000 -0.13997015E+000  0.22057214E+000
  0.10000000E+001 -0.35146837E+001 -0.16215791E+000  0.14271527E+000 -0.34772416E-001  0.21879661E+000
  0.10000000E+001 -0.36585044E+001  0.89934911E-001  0.17913456E+000 -0.79096602E-001  0.21548492E+000
  0.10000000E+001 -0.36596688E+001 -0.87872475E-001 -0.19632147E+000 -0.12586201E-001  0.21545790E+000
  0.10000000E+001 -0.36714737E+001 -0.14237609E-001 -0.21093144E+000  0.40115749E-001  0.21518377E+000
  0.10000000E+001 -0.38146377E+001  0.12760841E+000  0.16145245E+000 -0.50215724E-001  0.21183110E+000
  0.10000000E+001 -0.39453569E+001  0.19440874E+000  0.68220807E-001  0.33412368E-001  0.20872284E+000
  0.10000000E+001 -0.40017068E+001 -0.13108695E+000 -0.15631662E+000 -0.37189418E-001  0.20736857E+000
  0.10000000E+001 -0.41827768E+001  0.10783710E+000 -0.78709946E-001  0.15286246E+000  0.20295572E+000
  0.10000000E+001 -0.42272983E+001 -0.21832277E-001 -0.14240487E+000 -0.14138605E+000  0.20185592E+000
  0.10000000E+001 -0.42483269E+001  0.11475463E+000  0.73828071E-001 -0.14804160E+000  0.20133436E+000
  0.10000000E+001 -0.43005979E+001 -0.15522606E+000  0.91859346E-001  0.86484370E-001  0.20003203E+000
  0.10000000E+001 -0.43020785E+001  0.19734351E+000  0.27374288E-001 -0.17441177E-001  0.19999502E+000
  0.10000000E+001 -0.44196041E+001  0.12595290E+000  0.13556707E-001  0.15091334E+000  0.19703490E+000
  0.10000000E+001 -0.44291845E+001 -0.17908929E+000  0.25097382E-001 -0.77615055E-001  0.19679164E+000
  0.10000000E+001 -0.46049705E+001  0.28547152E-001 -0.18856854E+000  0.24414238E-001  0.19227347E+000
  0.10000000E+001 -0.46133306E+001 -0.93550147E-001  0.69002474E-001  0.15288073E+000  0.19205595E+000
  0.10000000E+001 -0.46307335E+001  0.10694619E+000  0.89099274E-001  0.13166355E+000  0.19160234E+000
  0.10000000E+001 -0.47656067E+001 -0.13738763E+000  0.72954851E-001 -0.10566436E+000  0.18804980E+000
  0.10000000E+001 -0.47746779E+001 -0.60783193E-001  0.14320621E+000  0.10521121E+000  0.18780845E+000
  0.10000000E+001 -0.48192461E+001  0.97392669E-001 -0.35235221E-001 -0.15524007E+000  0.18661815E+000
  0.10000000E+001 -0.49457056E+001  0.51428663E-001  0.16810004E-001  0.17502644E+000  0.18319863E+000
  0.10000000E+001 -0.49615507E+001 -0.53323124E-001 -0.15068473E+000 -0.88623034E-001  0.18276566E+000
  0.10000000E+001 -0.50321893E+001 -0.80424317E-001  0.15876174E+000 -0.31992791E-001  0.18082284E+000
  0.10000000E+001 -0.50799779E+001 -0.95897141E-001  0.14558754E+000  0.42743688E-001  0.17949656E+000
  0.10000000E+001 -0.52203029E+001  0.11852647E+000 -0.30298459E-002  0.12945292E+000  0.17554419E+000
  0.10000000E+001 -0.52490449E+001  0.10289830E+000 -0.54493830E-001  0.13027167E+000  0.17472362E+000
  0.10000000E+001 -0.52673947E+001 -0.11936687E+000 -0.79674240E-001 -0.98734051E-001  0.17419772E+000
  0.10000000E+001 -0.52907418E+001  0.29629638E-001  0.10886073E-001 -0.17063104E+000  0.17352630E+000
  0.10000000E+001 -0.53600352E+001 -0.16667557E+000 -0.78177184E-002  0.39706152E-001  0.17151805E+000
  0.10000000E+001 -0.53742722E+001 -0.31162568E-001  0.11726284E+000 -0.12064158E+000  0.17110252E+000
  0.10000000E+001 -0.53748886E+001  0.79749151E-001  0.31266711E-001  0.14809582E+000  0.17108450E+000
  0.10000000E+001 -0.53911546E+001 -0.16247725E+000 -0.39789857E-001 -0.33543360E-001  0.17060846E+000
  0.10000000E+001 -0.54083009E+001 -0.16266085E+000 -0.14071013E-001  0.47741368E-001  0.17010522E+000
  0.10000000E+001 -0.54307299E+001 -0.11659274E+000  0.11955810E+000 -0.28696460E-001  0.16944466E+000
  0.10000000E+001 -0.54409705E+001 -0.14402644E+000  0.75922637E-001  0.45839120E-001  0.16914221E+000
  0.10000000E+001 -0.55367792E+001  0.66806503E-001 -0.58615208E-001  0.14054234E+000  0.16628590E+000
  0.10000000E+001 -0.55382633E+001 -0.12999866E+000  0.33901293E-002  0.10356166E+000  0.16624127E+000
  0.10000000E+001 -0.55571985E+001 -0.15750958E+000  0.38705633E-001 -0.33755199E-001  0.16567078E+000
  0.10000000E+001 -0.55596976E+001 -0.45561659E-001  0.19485377E-001  0.15800719E+000  0.16559534E+000
  0.10000000E+001 -0.55651070E+001 -0.10997582E+000  0.71746165E-001 -0.10062570E+000  0.16543193E+000
  0.10000000E+001 -0.55665873E+001  0.12727048E+000  0.56332575E-001 -0.89340846E-001  0.16538718E+000
  0.10000000E+001 -0.55700105E+001 -0.67152403E-001 -0.14838410E+000 -0.28131879E-001  0.16528366E+000
  0.10000000E+001 -0.55700713E+001  0.35436360E-001  0.14866882E+000 -0.62927938E-001  0.16528182E+000
  0.10000000E+001 -0.57262295E+001  0.79286349E-001  0.63153083E-001 -0.12442613E+000  0.16048831E+000
  0.10000000E+001 -0.57840077E+001  0.13696849E+000  0.75533712E-001 -0.26702189E-001  0.15867803E+000
  0.10000000E+001 -0.57861694E+001  0.11538973E+000  0.77078398E-001 -0.76819469E-001  0.15860990E+000
  0.10000000E+001 -0.57861887E+001 -0.74840884E-001 -0.13832704E+000  0.20527491E-001  0.15860929E+000
  0.10000000E+001 -0.58050820E+001  0.35455510E-001  0.84841870E-001 -0.12850190E+000  0.15801257E+000
  0.10000000E+001 -0.58248613E+001  0.64989635E-001 -0.14237759E+000 -0.16587614E-001  0.15738545E+000
  0.10000000E+001 -0.58703185E+001  0.15509307E+000  0.60002556E-002 -0.15024784E-001  0.15593463E+000
  0.10000000E+001 -0.58980604E+001 -0.10808302E+000  0.99404450E-001  0.49749440E-001  0.15504254E+000
  0.10000000E+001 -0.59297848E+001  0.38981385E-001  0.82526515E-001  0.12405955E+000  0.15401606E+000
  0.10000000E+001 -0.59389776E+001 -0.10323976E+000 -0.10730211E+000 -0.38168406E-001  0.15371733E+000
  0.10000000E+001 -0.59561780E+001  0.83215383E-001 -0.19995825E-001 -0.12701331E+000  0.15315683E+000
  0.10000000E+001 -0.60429707E+001  0.60214926E-001  0.34103046E-001 -0.13341751E+000  0.15029666E+000
  0.10000000E+001 -0.60466870E+001 -0.11691948E-001  0.66508798E-001  0.13413352E+000  0.15017298E+000
  0.10000000E+001 -0.60861854E+001  0.56513141E-001  0.12896601E+000  0.48280140E-001  0.14885207E+000
  0.10000000E+001 -0.61136973E+001 -0.12760655E+000 -0.53564126E-002  0.74630412E-001  0.14792505E+000
  0.10000000E+001 -0.61432065E+001  0.29874530E-001 -0.12503534E+000 -0.71136532E-001  0.14692423E+000
  0.10000000E+001 -0.61735304E+001  0.36882350E-001 -0.42660852E-001  0.13454826E+000  0.14588862E+000
  0.10000000E+001 -0.62349103E+001 -0.13129219E-001  0.80749264E-001  0.11822381E+000  0.14376957E+000
  0.10000000E+001 -0.62404592E+001 -0.60724566E-001  0.12685300E+000  0.28897167E-001  0.14357647E+000
  0.10000000E+001 -0.62454835E+001 -0.12807089E+000 -0.46918908E-001 -0.44276642E-001  0.14340139E+000
  0.10000000E+001 -0.62574749E+001 -0.11242284E+000  0.75829068E-001  0.45333235E-001  0.14298267E+000
  0.10000000E+001 -0.62590668E+001 -0.56532049E-001 -0.12893505E+000  0.24657798E-001  0.14292699E+000
  0.10000000E+001 -0.62725245E+001  0.24019060E-001  0.32773464E-001  0.13653766E+000  0.14245543E+000
  0.10000000E+001 -0.62870686E+001 -0.15241453E-003 -0.11863056E+000  0.77941477E-001  0.14194403E+000
  0.10000000E+001 -0.62875099E+001  0.17176191E-001  0.10241533E+000 -0.96745923E-001  0.14192848E+000
  0.10000000E+001 -0.63048262E+001 -0.12766956E+000 -0.60509452E-001 -0.31017938E-002  0.14131713E+000
  0.10000000E+001 -0.63151059E+001  0.13371672E-001  0.14022529E+000  0.50793847E-002  0.14095295E+000
  0.10000000E+001 -0.63161003E+001 -0.11861951E+000 -0.40492817E-001  0.64401350E-001  0.14091767E+000
  0.10000000E+001 -0.63298350E+001  0.29107365E-001 -0.13672514E+000 -0.13395581E-001  0.14042950E+000
  0.10000000E+001 -0.63691784E+001  0.38379910E-001  0.35994942E-001 -0.12867928E+000  0.13902162E+000
  0.10000000E+001 -0.63868442E+001  0.58582841E-001 -0.10393941E+000 -0.70107067E-001  0.13838479E+000
  0.10000000E+001 -0.64136815E+001 -0.93416379E-001  0.90438343E-001  0.44455200E-001  0.13741171E+000
  0.10000000E+001 -0.64163724E+001  0.98809480E-001  0.71286822E-001 -0.63324133E-001  0.13731376E+000
  0.10000000E+001 -0.64215778E+001  0.12443069E+000 -0.40006499E-001 -0.41466833E-001  0.13712409E+000
  0.10000000E+001 -0.64489403E+001 -0.45297442E-002 -0.12717919E+000 -0.48314853E-001  0.13612271E+000
  0.10000000E+001 -0.64721567E+001 -0.61265140E-001  0.10905540E+000 -0.51485233E-001  0.13526724E+000
  0.10000000E+001 -0.64722653E+001 -0.90233344E-001  0.94547808E-001 -0.34853926E-001  0.13526323E+000
  0.10000000E+001 -0.64889744E+001 -0.10505448E+000  0.24100954E-002  0.84183122E-001  0.13464416E+000
  0.10000000E+001 -0.64907553E+001 -0.19575183E-001  0.36386142E-001  0.12807850E+000  0.13457801E+000
  0.10000000E+001 -0.65080645E+001 -0.43736289E-002 -0.12458159E+000  0.48973959E-001  0.13393338E+000
  0.10000000E+001 -0.65287806E+001  0.54502460E-001 -0.17183720E-001  0.12027132E+000  0.13315775E+000
  0.10000000E+001 -0.65669826E+001  0.12257974E+000  0.32784202E-001 -0.35332289E-001  0.13171548E+000
  0.10000000E+001 -0.65726194E+001 -0.70089421E-002  0.11646086E+000  0.60665817E-001  0.13150133E+000
  0.10000000E+001 -0.65786082E+001 -0.12429852E+000  0.30733914E-001  0.28948491E-001  0.13127342E+000
  0.10000000E+001 -0.65931699E+001 -0.34363993E-001  0.48285708E-001 -0.11651052E+000  0.13071762E+000
  0.10000000E+001 -0.65971362E+001  0.48015655E-001 -0.11745934E+000 -0.30744606E-001  0.13056581E+000
  0.10000000E+001 -0.66275696E+001  0.12279777E+000 -0.28720491E-002  0.40688518E-001  0.12939512E+000
  0.10000000E+001 -0.66511097E+001 -0.48697139E-001  0.63293387E-001 -0.10064905E+000  0.12848228E+000
  0.10000000E+001 -0.66697480E+001  0.11673942E+000  0.24274433E-001  0.45869081E-001  0.12775490E+000
  0.10000000E+001 -0.66874533E+001 -0.43618083E-002  0.12472530E+000  0.23850253E-001  0.12706007E+000
  0.10000000E+001 -0.67378745E+001 -0.11769817E+000 -0.19829056E-001 -0.37336284E-001  0.12506018E+000
  0.10000000E+001 -0.67949544E+001 -0.70862838E-001  0.42484052E-001  0.90789942E-001  0.12275687E+000
  0.10000000E+001 -0.67954895E+001  0.30077238E-001 -0.70238714E-001  0.96050932E-001  0.12273508E+000
  0.10000000E+001 -0.68465266E+001  0.84715188E-001  0.80158502E-001 -0.30846055E-001  0.12063800E+000
  0.10000000E+001 -0.68823132E+001  0.27316024E-001  0.28737963E-001 -0.11235491E+000  0.11914555E+000
  0.10000000E+001 -0.68836142E+001  0.60790877E-001  0.31041838E-001 -0.97588552E-001  0.11909094E+000
  0.10000000E+001 -0.68923376E+001 -0.86828216E-002 -0.23172061E-001  0.11611667E+000  0.11872413E+000
  0.10000000E+001 -0.69106369E+001 -0.10920024E-001  0.10247123E+000  0.57383148E-001  0.11795094E+000
  0.10000000E+001 -0.69230625E+001 -0.35837726E-001 -0.38489926E-001  0.10498739E+000  0.11742303E+000
  0.10000000E+001 -0.69272817E+001 -0.10653198E+000 -0.11194337E-001 -0.47661315E-001  0.11724324E+000
  0.10000000E+001 -0.69608451E+001  0.43456714E-001 -0.47182820E-001 -0.96413891E-001  0.11580304E+000
  0.10000000E+001 -0.69674837E+001  0.10321471E+000  0.19774532E-001 -0.47954659E-001  0.11551605E+000
  0.10000000E+001 -0.69721228E+001  0.52599512E-001  0.33600991E-001  0.96963034E-001  0.11531507E+000
  0.10000000E+001 -0.69815533E+001 -0.43515314E-001 -0.10630151E+000 -0.31090218E-002  0.11490544E+000
  0.10000000E+001 -0.70404168E+001  0.56737591E-001  0.94229150E-001  0.22723088E-001  0.11231485E+000
  0.10000000E+001 -0.70476902E+001  0.74542434E-001 -0.25654665E-001  0.79543417E-001  0.11199059E+000
  0.10000000E+001 -0.70759005E+001 -0.19766210E-001  0.48324056E-001  0.97641546E-001  0.11072393E+000
  0.10000000E+001 -0.71052197E+001  0.54648638E-001  0.78247408E-001 -0.53455269E-001  0.10939194E+000
  0.10000000E+001 -0.71254348E+001  0.17168625E-001 -0.10661381E+000  0.10157787E-001  0.10846403E+000
  0.10000000E+001 -0.71480426E+001 -0.67551492E-001 -0.53545306E-001 -0.64094176E-001  0.10741679E+000
  0.10000000E+001 -0.71586049E+001 -0.41586922E-001  0.14157162E-001 -0.97482551E-001  0.10692402E+000
  0.10000000E+001 -0.71921674E+001  0.10294259E+000 -0.21237612E-001  0.69933317E-002  0.10534287E+000
  0.10000000E+001 -0.72084923E+001 -0.79952237E-001  0.39520642E-001  0.54585985E-001  0.10456515E+000
  0.10000000E+001 -0.72307153E+001 -0.89398822E-001 -0.52139498E-001  0.98188781E-003  0.10349706E+000
  0.10000000E+001 -0.72443405E+001 -0.58886850E-001 -0.11514058E-001  0.83517387E-001  0.10283671E+000
  0.10000000E+001 -0.72935034E+001 -0.18398638E-001  0.97509522E-001 -0.15399444E-001  0.10041793E+000
  0.10000000E+001 -0.72956045E+001 -0.27680245E-001  0.32144495E-001  0.90902609E-001  0.10031325E+000
  0.10000000E+001 -0.73050262E+001  0.36108349E-001 -0.84881980E-001 -0.38206907E-001  0.99842532E-001
  0.10000000E+001 -0.73109577E+001 -0.42674937E-001 -0.81338444E-001  0.38368270E-001  0.99545049E-001
  0.10000000E+001 -0.73140397E+001 -0.20601038E-001 -0.81187662E-001  0.53502870E-001  0.99390122E-001
  0.10000000E+001 -0.73236512E+001  0.45074687E-001 -0.34861531E-001  0.80840756E-001  0.98905417E-001
  0.10000000E+001 -0.73544193E+001  0.76079072E-002  0.62902476E-001  0.73891804E-001  0.97337560E-001
  0.10000000E+001 -0.73618964E+001 -0.91137597E-003 -0.33816755E-001  0.90859376E-001  0.96952719E-001
  0.10000000E+001 -0.73620329E+001 -0.24939323E-002  0.87145454E-001  0.42401823E-001  0.96945678E-001
  0.10000000E+001 -0.73872370E+001  0.31744631E-001 -0.60935005E-001 -0.66525386E-001  0.95636935E-001
  0.10000000E+001 -0.74096053E+001  0.63653426E-001  0.63035452E-002  0.69507177E-001  0.94460261E-001
  0.10000000E+001 -0.74413396E+001  0.75880940E-001 -0.72355440E-002  0.52868963E-001  0.92765281E-001
  0.10000000E+001 -0.74692938E+001  0.82252890E-001 -0.11250846E-001 -0.37864705E-001  0.91246125E-001
  0.10000000E+001 -0.75197112E+001 -0.57920764E-001 -0.58423159E-002  0.66578782E-001  0.88440272E-001
  0.10000000E+001 -0.75770983E+001  0.83023190E-001 -0.15604209E-001  0.10557891E-001  0.85134073E-001
  0.10000000E+001 -0.76030219E+001  0.51748758E-001 -0.11691693E-001 -0.64606076E-001  0.83597696E-001
  0.10000000E+001 -0.76429654E+001 -0.17529091E-001 -0.77676279E-001 -0.15756457E-001  0.81173513E-001
  0.10000000E+001 -0.76450619E+001  0.70211721E-001 -0.11340960E-001  0.38857062E-001  0.81044274E-001
  0.10000000E+001 -0.76536604E+001  0.40497362E-001 -0.26128828E-001  0.64493699E-001  0.80512044E-001
  0.10000000E+001 -0.76636627E+001 -0.47434350E-001  0.47291781E-001 -0.43538912E-001  0.79888466E-001
  0.10000000E+001 -0.76701916E+001 -0.70999251E-001  0.15399877E-001  0.32230852E-001  0.79478788E-001
  0.10000000E+001 -0.77235043E+001  0.70798150E-001  0.27772028E-001  0.29486335E-003  0.76050974E-001
  0.10000000E+001 -0.77603242E+001  0.56835732E-001  0.61640133E-002  0.46338499E-001  0.73590434E-001
  0.10000000E+001 -0.77783076E+001  0.71510570E-002 -0.57345997E-001  0.43543269E-001  0.72358257E-001
  0.10000000E+001 -0.78103517E+001 -0.11533708E-001 -0.26308353E-001 -0.63954051E-001  0.70109033E-001
  0.10000000E+001 -0.78138330E+001  0.54157742E-001 -0.67361057E-002  0.43612240E-001  0.69860315E-001
  0.10000000E+001 -0.78317747E+001 -0.32189801E-001  0.93487545E-002 -0.59811902E-001  0.68564175E-001
  0.10000000E+001 -0.78396458E+001 -0.11173974E-002  0.13963853E-001 -0.66528927E-001  0.67987762E-001
  0.10000000E+001 -0.78546692E+001  0.45824710E-001 -0.40567227E-001  0.26953624E-001  0.66873775E-001
  0.10000000E+001 -0.79300076E+001 -0.23635751E-001  0.53663932E-001  0.16740716E-001  0.60981291E-001
  0.10000000E+001 -0.79491795E+001  0.35252185E-001 -0.15792125E-001  0.45109759E-001  0.59388535E-001
  0.10000000E+001 -0.79917959E+001 -0.44042921E-001  0.31157374E-001  0.13793986E-001  0.55685141E-001
  0.10000000E+001 -0.80704400E+001  0.36611890E-001 -0.31205330E-001 -0.43683658E-003  0.48108148E-001
  0.10000000E+001 -0.80875493E+001  0.57117263E-002 -0.40680406E-001  0.21349030E-001  0.46295792E-001
  0.10000000E+001 -0.80876210E+001  0.99187783E-002  0.31165921E-001 -0.32754956E-001  0.46288054E-001
  0.10000000E+001 -0.81286000E+001  0.40165412E-001 -0.24741242E-002  0.10649492E-001  0.41626833E-001
  0.10000000E+001 -0.81606000E+001  0.30053533E-002 -0.35557476E-001 -0.11807916E-001  0.37587141E-001
  0.10000000E+001 -0.81912043E+001 -0.10003420E-001 -0.31079906E-001  0.63813628E-002  0.33267864E-001
