  0.10000000E+001 -0.26964905E+001 -0.16897322E+000 -0.12367607E+000 -0.11048153E+000  0.23675702E+000
  0.10000000E+001 -0.19174740E+001 -0.52527839E-001  0.35232467E-001 -0.24462942E+000  0.25267381E+000
  0.10000000E+001 -0.59561780E+001  0.83215383E-001 -0.19995825E-001 -0.12701331E+000  0.15315683E+000
  0.10000000E+001 -0.19104176E+001 -0.14173987E-001 -0.25104807E+000 -0.26240825E-001  0.25281340E+000
  0.10000000E+001  0.13325485E+001 -0.54525528E-001 -0.24037284E+000 -0.18865880E+000  0.31039375E+000
  0.10000000E+001  0.10902736E+001 -0.21308212E+000  0.17515573E+000 -0.13355900E+000  0.30646620E+000
  0.10000000E+001 -0.16743941E+001 -0.19887486E+000 -0.33402851E-001 -0.16002467E+000  0.25743903E+000
  0.10000000E+001  0.56465630E+000  0.29330655E+000  0.38485627E-001 -0.33992322E-001  0.29776729E+000
  0.10000000E+001 -0.12791991E+001 -0.20262472E+000  0.10484799E+000 -0.13482183E+000  0.26500340E+000
  0.10000000E+001 -0.12116447E+001  0.19288007E+000 -0.11032416E+000  0.14672493E+000  0.26627495E+000
  0.10000000E+001 -0.11745321E+001  0.26181051E+000  0.14253110E-002  0.52217806E-001  0.26697092E+000
  0.10000000E+001  0.16409878E+000 -0.46093658E-001  0.27014541E+000 -0.97757943E-001  0.29096354E+000
  0.10000000E+001 -0.11567175E+001 -0.15410872E+000 -0.17771280E+000 -0.12696567E+000  0.26730436E+000
  0.10000000E+001  0.49584473E-001  0.16559815E+000 -0.79124857E-001 -0.22322891E+000  0.28898899E+000
  0.10000000E+001 -0.64410859E+000  0.23412483E+000 -0.96430034E-001  0.11164461E+000  0.27672677E+000
  0.10000000E+001 -0.60775276E+000 -0.17346678E+000  0.73407670E-001 -0.20362185E+000  0.27738289E+000
  0.10000000E+001 -0.39144659E+000  0.27988626E-002 -0.26500620E+000 -0.94171161E-001  0.28125492E+000
  0.10000000E+001 -0.25091738E+000  0.46588591E-002 -0.22811683E+000  0.16867314E+000  0.28374217E+000
  0.10000000E+001 -0.30892188E+000  0.20658177E+000 -0.12067809E+000  0.15063314E+000  0.28271819E+000
  0.10000000E+001 -0.27955855E+001  0.12652126E+000  0.16662817E+000  0.10625612E+000  0.23465494E+000
  0.10000000E+001 -0.29856363E+001 -0.60998716E-001 -0.22233332E+000  0.30791136E-002  0.23056980E+000
  0.10000000E+001 -0.30941411E+001 -0.10871868E+000 -0.19501714E+000 -0.47179918E-001  0.22820469E+000
  0.10000000E+001 -0.32750644E+001  0.10507382E+000  0.18375468E+000 -0.73904390E-001  0.22420560E+000
  0.10000000E+001 -0.33054294E+001  0.15129530E+000  0.12216818E+000 -0.11022326E+000  0.22352740E+000
  0.10000000E+001 -0.34150882E+001 -0.15461050E+000 -0.14551392E+000 -0.61556514E-001  0.22106088E+000
  0.10000000E+001 -0.34366724E+001 -0.31074751E-001  0.16761500E+000 -0.13997015E+000  0.22057214E+000
  0.10000000E+001 -0.34690238E+001  0.20684312E-001  0.14372708E+000 -0.16505526E+000  0.21983757E+000
  0.10000000E+001 -0.35867858E+001 -0.13988378E+000  0.10805417E+000  0.12612597E+000  0.21714266E+000
  0.10000000E+001 -0.36417951E+001  0.12344442E+000  0.17322359E+000 -0.36822644E-001  0.21587228E+000
  0.10000000E+001 -0.36585044E+001  0.89934911E-001  0.17913456E+000 -0.79096602E-001  0.21548492E+000
  0.10000000E+001 -0.36596688E+001 -0.87872475E-001 -0.19632147E+000 -0.12586201E-001  0.21545790E+000
  0.10000000E+001 -0.36714737E+001 -0.14237609E-001 -0.21093144E+000  0.40115749E-001  0.21518377E+000
  0.10000000E+001 -0.38146377E+001  0.12760841E+000  0.16145245E+000 -0.50215724E-001  0.21183110E+000
  0.10000000E+001 -0.39453569E+001  0.19440874E+000  0.68220807E-001  0.33412368E-001  0.20872284E+000
  0.10000000E+001 -0.40082768E+001  0.47293177E-001  0.20119948E+000 -0.14769907E-001  0.20721010E+000
  0.10000000E+001 -0.41827768E+001  0.10783710E+000 -0.78709946E-001  0.15286246E+000  0.20295572E+000
  0.10000000E+001 -0.42483269E+001  0.11475463E+000  0.73828071E-001 -0.14804160E+000  0.20133436E+000
  0.10000000E+001 -0.43005979E+001 -0.15522606E+000  0.91859346E-001  0.86484370E-001  0.20003203E+000
  0.10000000E+001 -0.43020785E+001  0.19734351E+000  0.27374288E-001 -0.17441177E-001  0.19999502E+000
  0.10000000E+001 -0.44196041E+001  0.12595290E+000  0.13556707E-001  0.15091334E+000  0.19703490E+000
  0.10000000E+001 -0.44291845E+001 -0.17908929E+000  0.25097382E-001 -0.77615055E-001  0.19679164E+000
  0.10000000E+001 -0.46049705E+001  0.28547152E-001 -0.18856854E+000  0.24414238E-001  0.19227347E+000
  0.10000000E+001 -0.46133306E+001 -0.93550147E-001  0.69002474E-001  0.15288073E+000  0.19205595E+000
  0.10000000E+001 -0.46307335E+001  0.10694619E+000  0.89099274E-001  0.13166355E+000  0.19160234E+000
  0.10000000E+001 -0.46344806E+001 -0.16438102E-001  0.13960079E+000 -0.13005920E+000  0.19150454E+000
  0.10000000E+001 -0.47656067E+001 -0.13738763E+000  0.72954851E-001 -0.10566436E+000  0.18804980E+000
  0.10000000E+001 -0.48459590E+001  0.18495104E+000 -0.18332108E-001  0.40311768E-002  0.18590106E+000
  0.10000000E+001 -0.49457056E+001  0.51428663E-001  0.16810004E-001  0.17502644E+000  0.18319863E+000
  0.10000000E+001 -0.49615507E+001 -0.53323124E-001 -0.15068473E+000 -0.88623034E-001  0.18276566E+000
  0.10000000E+001 -0.50321893E+001 -0.80424317E-001  0.15876174E+000 -0.31992791E-001  0.18082284E+000
  0.10000000E+001 -0.50799779E+001 -0.95897141E-001  0.14558754E+000  0.42743688E-001  0.17949656E+000
  0.10000000E+001 -0.52203029E+001  0.11852647E+000 -0.30298459E-002  0.12945292E+000  0.17554419E+000
  0.10000000E+001 -0.52490449E+001  0.10289830E+000 -0.54493830E-001  0.13027167E+000  0.17472362E+000
  0.10000000E+001 -0.52673947E+001 -0.11936687E+000 -0.79674240E-001 -0.98734051E-001  0.17419772E+000
  0.10000000E+001 -0.52907418E+001  0.29629638E-001  0.10886073E-001 -0.17063104E+000  0.17352630E+000
  0.10000000E+001 -0.53600352E+001 -0.16667557E+000 -0.78177184E-002  0.39706152E-001  0.17151805E+000
  0.10000000E+001 -0.53742722E+001 -0.31162568E-001  0.11726284E+000 -0.12064158E+000  0.17110252E+000
  0.10000000E+001 -0.53748886E+001  0.79749151E-001  0.31266711E-001  0.14809582E+000  0.17108450E+000
  0.10000000E+001 -0.53911546E+001 -0.16247725E+000 -0.39789857E-001 -0.33543360E-001  0.17060846E+000
  0.10000000E+001 -0.54083009E+001 -0.16266085E+000 -0.14071013E-001  0.47741368E-001  0.17010522E+000
  0.10000000E+001 -0.54409705E+001 -0.14402644E+000  0.75922637E-001  0.45839120E-001  0.16914221E+000
  0.10000000E+001 -0.55367792E+001  0.66806503E-001 -0.58615208E-001  0.14054234E+000  0.16628590E+000
  0.10000000E+001 -0.55382633E+001 -0.12999866E+000  0.33901293E-002  0.10356166E+000  0.16624127E+000
  0.10000000E+001 -0.55571985E+001 -0.15750958E+000  0.38705633E-001 -0.33755199E-001  0.16567078E+000
  0.10000000E+001 -0.55596976E+001 -0.45561659E-001  0.19485377E-001  0.15800719E+000  0.16559534E+000
  0.10000000E+001 -0.55651070E+001 -0.10997582E+000  0.71746165E-001 -0.10062570E+000  0.16543193E+000
  0.10000000E+001 -0.59389776E+001 -0.10323976E+000 -0.10730211E+000 -0.38168406E-001  0.15371733E+000
  0.10000000E+001 -0.55700105E+001 -0.67152403E-001 -0.14838410E+000 -0.28131879E-001  0.16528366E+000
  0.10000000E+001 -0.55700713E+001  0.35436360E-001  0.14866882E+000 -0.62927938E-001  0.16528182E+000
  0.10000000E+001 -0.57262295E+001  0.79286349E-001  0.63153083E-001 -0.12442613E+000  0.16048831E+000
  0.10000000E+001 -0.57840077E+001  0.13696849E+000  0.75533712E-001 -0.26702189E-001  0.15867803E+000
  0.10000000E+001 -0.57861694E+001  0.11538973E+000  0.77078398E-001 -0.76819469E-001  0.15860990E+000
  0.10000000E+001 -0.57861887E+001 -0.74840884E-001 -0.13832704E+000  0.20527491E-001  0.15860929E+000
  0.10000000E+001 -0.58050820E+001  0.35455510E-001  0.84841870E-001 -0.12850190E+000  0.15801257E+000
  0.10000000E+001 -0.58248613E+001  0.64989635E-001 -0.14237759E+000 -0.16587614E-001  0.15738545E+000
  0.10000000E+001 -0.58703185E+001  0.15509307E+000  0.60002556E-002 -0.15024784E-001  0.15593463E+000
  0.10000000E+001 -0.58980604E+001 -0.10808302E+000  0.99404450E-001  0.49749440E-001  0.15504254E+000
  0.10000000E+001 -0.59297848E+001  0.38981385E-001  0.82526515E-001  0.12405955E+000  0.15401606E+000
  0.10000000E+001 -0.60429707E+001  0.60214926E-001  0.34103046E-001 -0.13341751E+000  0.15029666E+000
  0.10000000E+001 -0.60466870E+001 -0.11691948E-001  0.66508798E-001  0.13413352E+000  0.15017298E+000
  0.10000000E+001 -0.60861854E+001  0.56513141E-001  0.12896601E+000  0.48280140E-001  0.14885207E+000
  0.10000000E+001 -0.61136973E+001 -0.12760655E+000 -0.53564126E-002  0.74630412E-001  0.14792505E+000
  0.10000000E+001 -0.61432065E+001  0.29874530E-001 -0.12503534E+000 -0.71136532E-001  0.14692423E+000
  0.10000000E+001 -0.61735304E+001  0.36882350E-001 -0.42660852E-001  0.13454826E+000  0.14588862E+000
  0.10000000E+001 -0.62349103E+001 -0.13129219E-001  0.80749264E-001  0.11822381E+000  0.14376957E+000
  0.10000000E+001 -0.62404592E+001 -0.60724566E-001  0.12685300E+000  0.28897167E-001  0.14357647E+000
  0.10000000E+001 -0.62454835E+001 -0.12807089E+000 -0.46918908E-001 -0.44276642E-001  0.14340139E+000
  0.10000000E+001 -0.62574749E+001 -0.11242284E+000  0.75829068E-001  0.45333235E-001  0.14298267E+000
  0.10000000E+001 -0.62590668E+001 -0.56532049E-001 -0.12893505E+000  0.24657798E-001  0.14292699E+000
  0.10000000E+001 -0.62725245E+001  0.24019060E-001  0.32773464E-001  0.13653766E+000  0.14245543E+000
  0.10000000E+001 -0.62870686E+001 -0.15241453E-003 -0.11863056E+000  0.77941477E-001  0.14194403E+000
  0.10000000E+001 -0.62875099E+001  0.17176191E-001  0.10241533E+000 -0.96745923E-001  0.14192848E+000
  0.10000000E+001 -0.63151059E+001  0.13371672E-001  0.14022529E+000  0.50793847E-002  0.14095295E+000
  0.10000000E+001 -0.63161003E+001 -0.11861951E+000 -0.40492817E-001  0.64401350E-001  0.14091767E+000
  0.10000000E+001 -0.63298350E+001  0.29107365E-001 -0.13672514E+000 -0.13395581E-001  0.14042950E+000
  0.10000000E+001 -0.63691784E+001  0.38379910E-001  0.35994942E-001 -0.12867928E+000  0.13902162E+000
  0.10000000E+001 -0.63868442E+001  0.58582841E-001 -0.10393941E+000 -0.70107067E-001  0.13838479E+000
  0.10000000E+001 -0.64136815E+001 -0.93416379E-001  0.90438343E-001  0.44455200E-001  0.13741171E+000
  0.10000000E+001 -0.64163724E+001  0.98809480E-001  0.71286822E-001 -0.63324133E-001  0.13731376E+000
  0.10000000E+001 -0.64215778E+001  0.12443069E+000 -0.40006499E-001 -0.41466833E-001  0.13712409E+000
  0.10000000E+001 -0.64489403E+001 -0.45297442E-002 -0.12717919E+000 -0.48314853E-001  0.13612271E+000
  0.10000000E+001 -0.64721567E+001 -0.61265140E-001  0.10905540E+000 -0.51485233E-001  0.13526724E+000
  0.10000000E+001 -0.64722653E+001 -0.90233344E-001  0.94547808E-001 -0.34853926E-001  0.13526323E+000
  0.10000000E+001 -0.64889744E+001 -0.10505448E+000  0.24100954E-002  0.84183122E-001  0.13464416E+000
  0.10000000E+001 -0.65080645E+001 -0.43736289E-002 -0.12458159E+000  0.48973959E-001  0.13393338E+000
  0.10000000E+001 -0.65148744E+001  0.64084132E-002 -0.34843749E-001 -0.12889878E+000  0.13367890E+000
  0.10000000E+001 -0.65287806E+001  0.54502460E-001 -0.17183720E-001  0.12027132E+000  0.13315775E+000
  0.10000000E+001 -0.65322993E+001 -0.14650204E-001 -0.12248460E+000  0.49786494E-001  0.13302556E+000
  0.10000000E+001 -0.65669826E+001  0.12257974E+000  0.32784202E-001 -0.35332289E-001  0.13171548E+000
  0.10000000E+001 -0.65726194E+001 -0.70089421E-002  0.11646086E+000  0.60665817E-001  0.13150133E+000
  0.10000000E+001 -0.65971362E+001  0.48015655E-001 -0.11745934E+000 -0.30744606E-001  0.13056581E+000
  0.10000000E+001 -0.66275696E+001  0.12279777E+000 -0.28720491E-002  0.40688518E-001  0.12939512E+000
  0.10000000E+001 -0.66511097E+001 -0.48697139E-001  0.63293387E-001 -0.10064905E+000  0.12848228E+000
  0.10000000E+001 -0.66548856E+001 -0.58798991E-001 -0.68454447E-001 -0.91250233E-001  0.12833526E+000
  0.10000000E+001 -0.66604640E+001  0.10155637E+000  0.59888600E-001  0.50137934E-001  0.12811773E+000
  0.10000000E+001 -0.66697480E+001  0.11673942E+000  0.24274433E-001  0.45869081E-001  0.12775490E+000
  0.10000000E+001 -0.67149358E+001  0.89362129E-001  0.64412025E-001 -0.61114129E-001  0.12597395E+000
  0.10000000E+001 -0.67378745E+001 -0.11769817E+000 -0.19829056E-001 -0.37336284E-001  0.12506018E+000
  0.10000000E+001 -0.67546243E+001 -0.46927044E-001 -0.11462640E+000  0.11453896E-001  0.12438871E+000
  0.10000000E+001 -0.67949544E+001 -0.70862838E-001  0.42484052E-001  0.90789942E-001  0.12275687E+000
  0.10000000E+001 -0.67954895E+001  0.30077238E-001 -0.70238714E-001  0.96050932E-001  0.12273508E+000
  0.10000000E+001 -0.68009423E+001  0.35242792E-001  0.11630451E+000  0.15510509E-001  0.12251273E+000
  0.10000000E+001 -0.68308829E+001 -0.20014381E-001 -0.11841205E+000 -0.16969867E-001  0.12128464E+000
  0.10000000E+001 -0.68823132E+001  0.27316024E-001  0.28737963E-001 -0.11235491E+000  0.11914555E+000
  0.10000000E+001 -0.68836142E+001  0.60790877E-001  0.31041838E-001 -0.97588552E-001  0.11909094E+000
  0.10000000E+001 -0.68923376E+001 -0.86828216E-002 -0.23172061E-001  0.11611667E+000  0.11872413E+000
  0.10000000E+001 -0.68970238E+001  0.30950322E-001  0.44817142E-001 -0.10527135E+000  0.11852660E+000
  0.10000000E+001 -0.69106369E+001 -0.10920024E-001  0.10247123E+000  0.57383148E-001  0.11795094E+000
  0.10000000E+001 -0.69272817E+001 -0.10653198E+000 -0.11194337E-001 -0.47661315E-001  0.11724324E+000
  0.10000000E+001 -0.69275511E+001  0.31815544E-003 -0.62954215E-001  0.98893618E-001  0.11723175E+000
  0.10000000E+001 -0.69325875E+001 -0.76485093E-001 -0.79943368E-001 -0.38105215E-001  0.11701675E+000
  0.10000000E+001 -0.69608451E+001  0.43456714E-001 -0.47182820E-001 -0.96413891E-001  0.11580304E+000
  0.10000000E+001 -0.69703412E+001 -0.92223621E-002 -0.11074228E+000  0.31088204E-001  0.11539229E+000
  0.10000000E+001 -0.70071492E+001 -0.62594752E-001 -0.63275967E-001  0.70889710E-001  0.11378621E+000
  0.10000000E+001 -0.70138098E+001 -0.92630117E-002  0.21074059E-001 -0.11113404E+000  0.11349315E+000
  0.10000000E+001 -0.70139146E+001  0.64065786E-001  0.88458562E-001 -0.30827024E-001  0.11348853E+000
  0.10000000E+001 -0.70309364E+001 -0.53414725E-001  0.92584237E-001  0.35839307E-001  0.11273611E+000
  0.10000000E+001 -0.70404168E+001  0.56737591E-001  0.94229150E-001  0.22723088E-001  0.11231485E+000
  0.10000000E+001 -0.70706516E+001  0.66317008E-001 -0.76233916E-001 -0.45855452E-001  0.11096070E+000
  0.10000000E+001 -0.70719906E+001  0.42446905E-001  0.85075756E-001  0.57089957E-001  0.11090035E+000
  0.10000000E+001 -0.70759005E+001 -0.19766210E-001  0.48324056E-001  0.97641546E-001  0.11072393E+000
  0.10000000E+001 -0.71120363E+001  0.83966174E-001  0.69526634E-001  0.37628243E-002  0.10907993E+000
  0.10000000E+001 -0.71254348E+001  0.17168625E-001 -0.10661381E+000  0.10157787E-001  0.10846403E+000
  0.10000000E+001 -0.71480426E+001 -0.67551492E-001 -0.53545306E-001 -0.64094176E-001  0.10741679E+000
  0.10000000E+001 -0.71586049E+001 -0.41586922E-001  0.14157162E-001 -0.97482551E-001  0.10692402E+000
  0.10000000E+001 -0.71821985E+001 -0.10023710E+000 -0.32180586E-001 -0.10664982E-001  0.10581497E+000
  0.10000000E+001 -0.71872797E+001 -0.45282481E-001  0.95353518E-001 -0.17887725E-002  0.10557460E+000
  0.10000000E+001 -0.71921674E+001  0.10294259E+000 -0.21237612E-001  0.69933317E-002  0.10534287E+000
  0.10000000E+001 -0.72406160E+001 -0.95882893E-002  0.31200662E-001  0.97709864E-001  0.10301764E+000
  0.10000000E+001 -0.72443405E+001 -0.58886850E-001 -0.11514058E-001  0.83517387E-001  0.10283671E+000
  0.10000000E+001 -0.72927992E+001 -0.71801777E-001 -0.55845672E-001  0.42621205E-001  0.10045298E+000
  0.10000000E+001 -0.73236512E+001  0.45074687E-001 -0.34861531E-001  0.80840756E-001  0.98905417E-001
  0.10000000E+001 -0.73396984E+001 -0.89892348E-001  0.27601781E-001 -0.27916249E-001  0.98090822E-001
  0.10000000E+001 -0.73544193E+001  0.76079072E-002  0.62902476E-001  0.73891804E-001  0.97337560E-001
  0.10000000E+001 -0.73573251E+001 -0.33057823E-001 -0.80692937E-001 -0.42911214E-001  0.97188179E-001
  0.10000000E+001 -0.73618964E+001 -0.91137597E-003 -0.33816755E-001  0.90859376E-001  0.96952719E-001
  0.10000000E+001 -0.73715535E+001 -0.27804288E-001 -0.88897566E-001  0.25048005E-001  0.96453400E-001
  0.10000000E+001 -0.73747282E+001 -0.52382936E-001 -0.37291005E-001  0.71672313E-001  0.96288688E-001
  0.10000000E+001 -0.73872370E+001  0.31744631E-001 -0.60935005E-001 -0.66525386E-001  0.95636935E-001
  0.10000000E+001 -0.73911632E+001  0.24104585E-002  0.52523688E-002  0.95256304E-001  0.95431447E-001
  0.10000000E+001 -0.73991602E+001 -0.86375559E-001 -0.61751830E-002 -0.39093749E-001  0.95011532E-001
  0.10000000E+001 -0.74096053E+001  0.63653426E-001  0.63035452E-002  0.69507177E-001  0.94460261E-001
  0.10000000E+001 -0.74185494E+001 -0.53782773E-001  0.38512568E-001 -0.66764476E-001  0.93985636E-001
  0.10000000E+001 -0.74425962E+001  0.40923396E-001 -0.33039860E-001 -0.76331347E-001  0.92697526E-001
  0.10000000E+001 -0.75585122E+001  0.76872167E-001  0.37185571E-001 -0.11898512E-001  0.86218741E-001
  0.10000000E+001 -0.75639879E+001 -0.64869116E-001  0.39865058E-001  0.39770457E-001  0.85900607E-001
  0.10000000E+001 -0.75770983E+001  0.83023190E-001 -0.15604209E-001  0.10557891E-001  0.85134073E-001
  0.10000000E+001 -0.76450619E+001  0.70211721E-001 -0.11340960E-001  0.38857062E-001  0.81044274E-001
  0.10000000E+001 -0.76478895E+001  0.58304305E-001  0.28520731E-001  0.48239759E-001  0.80869638E-001
  0.10000000E+001 -0.76530778E+001  0.15959498E-001 -0.45672453E-001  0.64399824E-001  0.80548221E-001
  0.10000000E+001 -0.76701916E+001 -0.70999251E-001  0.15399877E-001  0.32230852E-001  0.79478788E-001
  0.10000000E+001 -0.76759843E+001  0.62387908E-001 -0.32260662E-001 -0.36413581E-001  0.79113528E-001
  0.10000000E+001 -0.76824460E+001 -0.63225511E-001  0.19197476E-001  0.42758922E-001  0.78704090E-001
  0.10000000E+001 -0.77219333E+001  0.68517745E-001 -0.29963876E-001  0.14385579E-001  0.76154187E-001
  0.10000000E+001 -0.77605669E+001 -0.17400915E-001  0.34568261E-001  0.62572904E-001  0.73573941E-001
  0.10000000E+001 -0.77684997E+001 -0.46803918E-001  0.36771749E-001 -0.42320543E-001  0.73032846E-001
  0.10000000E+001 -0.77732192E+001  0.58568998E-001  0.42991824E-001  0.28243283E-002  0.72709018E-001
  0.10000000E+001 -0.78103517E+001 -0.11533708E-001 -0.26308353E-001 -0.63954051E-001  0.70109033E-001
  0.10000000E+001 -0.78293158E+001  0.64935774E-001  0.10862897E-001  0.19773160E-001  0.68743255E-001
  0.10000000E+001 -0.78664584E+001 -0.59506474E-001 -0.54967724E-002 -0.27981692E-001  0.65986438E-001
  0.10000000E+001 -0.78981806E+001 -0.25589694E-001 -0.41909260E-001 -0.40320828E-001  0.63537294E-001
  0.10000000E+001 -0.79252630E+001  0.15881780E-001 -0.57565524E-001 -0.14147195E-001  0.61369077E-001
  0.10000000E+001 -0.79300076E+001 -0.23635751E-001  0.53663932E-001  0.16740716E-001  0.60981291E-001
  0.10000000E+001 -0.79681848E+001 -0.21011745E-001  0.18602291E-001  0.50491648E-001  0.57766298E-001
  0.10000000E+001 -0.80027153E+001  0.29260035E-001 -0.36808794E-001  0.27939283E-001  0.54695891E-001
  0.10000000E+001 -0.80175613E+001 -0.41081757E-001 -0.59202919E-002 -0.33472669E-001  0.53321479E-001
  0.10000000E+001 -0.80551132E+001 -0.22711308E-001  0.41692824E-001  0.14613906E-001  0.49675561E-001
  0.10000000E+001 -0.80903965E+001 -0.45813237E-001 -0.36296732E-002  0.16736884E-002  0.45987264E-001
  0.10000000E+001 -0.80904251E+001  0.45778800E-001  0.43373975E-002 -0.17508871E-003  0.45984151E-001
  0.10000000E+001 -0.81453257E+001 -0.15127167E-001  0.24789901E-001 -0.26873157E-001  0.39566866E-001
  0.10000000E+001 -0.81492903E+001 -0.14935350E-001 -0.21204377E-001  0.29209585E-001  0.39062644E-001
  0.10000000E+001 -0.81701540E+001 -0.20214030E-001 -0.14265800E-002 -0.30109992E-001  0.36293990E-001
  0.10000000E+001 -0.82212456E+001  0.22996667E-001 -0.16415937E-001 -0.28297848E-002  0.28396080E-001
  0.10000000E+001 -0.82275686E+001 -0.18555288E-001  0.18255301E-001  0.80964454E-002  0.27259992E-001
  0.10000000E+001 -0.82673267E+001 -0.12742183E-001 -0.18695618E-002 -0.13404033E-001  0.18588345E-001
