  0.49961334E-001 -0.36074205E+001 -0.24117628E+000  0.95073771E-001 -0.97559617E-001  0.27698899E+000
  0.49961334E-001  0.10939310E+002  0.16109905E+000  0.41526534E+000  0.15424654E+000  0.47137056E+000
  0.49961334E-001 -0.35043335E+001 -0.24408544E+000  0.10860610E+000 -0.79879807E-001  0.27884363E+000
  0.49961334E-001 -0.34656182E+001 -0.16793789E+000  0.22097910E+000  0.33256981E-001  0.27953698E+000
  0.49961334E-001  0.40642368E+001  0.11247283E+000  0.37449002E+000  0.23378621E-001  0.39171351E+000
  0.49961334E-001  0.50151938E+001  0.94010730E-002 -0.40247465E+000  0.29577382E-001  0.40366947E+000
  0.49961334E-001 -0.32700370E+001 -0.48689147E-001 -0.27730582E+000  0.28767762E-001  0.28301366E+000
  0.49961334E-001  0.49624379E+000 -0.85186406E-001 -0.22353498E+000  0.24603847E+000  0.34316110E+000
  0.49961334E-001 -0.32058410E+001 -0.70061835E-001 -0.25715897E+000 -0.98485007E-001  0.28414555E+000
  0.49961334E-001 -0.25647345E+001 -0.77244482E-001  0.25979611E+000  0.11700013E+000  0.29521138E+000
  0.49961334E-001 -0.24533213E+001  0.18888915E+000  0.11867783E+000  0.19621507E+000  0.29709240E+000
  0.49961334E-001 -0.47774301E+000 -0.43438191E-001  0.32210580E+000  0.48791941E-001  0.32866347E+000
  0.49961334E-001 -0.69639525E+000 -0.19417499E+000 -0.16556852E+000  0.20178277E+000  0.32532008E+000
  0.49961334E-001 -0.75494360E+001 -0.47117752E-001 -0.15395363E+000 -0.10668149E+000  0.19313918E+000
  0.49961334E-001 -0.19917752E+001 -0.51594818E-001 -0.20266537E+000 -0.22168463E+000  0.30476114E+000
  0.49961334E-001 -0.82705004E+000 -0.10687363E-001  0.25409244E+000  0.19962318E+000  0.32330574E+000
  0.49961334E-001 -0.19411644E+001  0.30462865E+000 -0.39512071E-002 -0.23900549E-001  0.30559035E+000
  0.49961334E-001 -0.19272102E+001  0.87960579E-001 -0.15242801E+000 -0.25010726E+000  0.30581858E+000
  0.49961334E-001 -0.10179719E+001  0.26915263E+000  0.16046856E+000 -0.66513810E-001  0.32033948E+000
  0.49961334E-001 -0.39486305E+001  0.23954246E-001  0.20679256E+000 -0.17312952E+000  0.27075967E+000
  0.49961334E-001 -0.39966297E+001 -0.14246325E+000  0.10920406E+000 -0.20151799E+000  0.26987183E+000
  0.49961334E-001 -0.40509530E+001  0.20259512E+000 -0.13811206E+000  0.11030798E+000  0.26886349E+000
  0.49961334E-001 -0.40879949E+001 -0.11449418E+000 -0.22354647E+000  0.93995809E-001  0.26817374E+000
  0.49961334E-001 -0.75232996E+001  0.60729254E-001  0.43008737E-002  0.18400426E+000  0.19381462E+000
  0.49961334E-001 -0.41245654E+001 -0.21591889E-001 -0.37599551E-001 -0.26395362E+000  0.26749103E+000
  0.49961334E-001 -0.41796625E+001  0.50208418E-001  0.46071773E-001 -0.25759850E+000  0.26645915E+000
  0.49961334E-001 -0.43083322E+001 -0.24479995E-001 -0.25598900E+000 -0.59867741E-001  0.26403368E+000
  0.49961334E-001 -0.43810397E+001  0.91004485E-001 -0.54222900E-001 -0.24034302E+000  0.26265321E+000
  0.49961334E-001 -0.44090539E+001  0.69898176E-001  0.22106131E+000 -0.12228126E+000  0.26211937E+000
  0.49961334E-001 -0.46641901E+001  0.15585731E+000  0.19712932E+000  0.54806354E-001  0.25720654E+000
  0.49961334E-001 -0.47469841E+001  0.25197437E+000 -0.33635390E-001  0.26548853E-001  0.25559199E+000
  0.49961334E-001 -0.47632073E+001 -0.20584173E+000 -0.34810431E-001 -0.14690966E+000  0.25527442E+000
  0.49961334E-001 -0.49060345E+001 -0.73616209E-001 -0.14134277E+000  0.19580509E+000  0.25246140E+000
  0.49961334E-001 -0.49126400E+001 -0.22314315E+000  0.99246524E-001 -0.63466269E-001  0.25233055E+000
  0.49961334E-001 -0.50641773E+001  0.20443204E+000 -0.75413827E-001  0.12114301E+000  0.24930971E+000
  0.49961334E-001 -0.51171547E+001  0.36202176E-001 -0.20437838E+000  0.13617796E+000  0.24824495E+000
  0.49961334E-001 -0.52079714E+001  0.22456023E+000 -0.70670191E-001 -0.72772351E-001  0.24640899E+000
  0.49961334E-001 -0.53298465E+001  0.11021878E+000  0.15984036E+000  0.14765337E+000  0.24392343E+000
  0.49961334E-001 -0.54975648E+001 -0.15720789E-001  0.72648587E-001 -0.22868427E+000  0.24046092E+000
  0.49961334E-001 -0.55065720E+001  0.14334622E-001 -0.23742686E+000  0.33976274E-001  0.24027356E+000
  0.49961334E-001 -0.56124975E+001  0.23949527E-001 -0.21388087E+000  0.10175227E+000  0.23805909E+000
  0.49961334E-001 -0.56526135E+001 -0.11918535E+000 -0.15130427E+000  0.13846602E+000  0.23721503E+000
  0.49961334E-001 -0.57069377E+001  0.62480797E-002  0.52420655E-001  0.23008860E+000  0.23606721E+000
  0.49961334E-001 -0.57342283E+001  0.10062062E+000 -0.17713519E-001  0.21217102E+000  0.23548847E+000
  0.49961334E-001 -0.57953902E+001  0.21168208E+000  0.69167190E-001  0.72455504E-001  0.23418626E+000
  0.49961334E-001 -0.59170331E+001  0.13702024E+000  0.58403364E-001 -0.17731687E+000  0.23157455E+000
  0.49961334E-001 -0.59923981E+001  0.13810715E+000 -0.25439644E-001  0.18207790E+000  0.22994156E+000
  0.49961334E-001 -0.60355498E+001 -0.20385752E+000  0.48916030E-001  0.92146305E-001  0.22900132E+000
  0.49961334E-001 -0.61528572E+001  0.62140888E-001 -0.17979019E+000 -0.12281095E+000  0.22642556E+000
  0.49961334E-001 -0.63215748E+001  0.15592694E+000 -0.13816982E+000  0.78595446E-001  0.22266871E+000
  0.49961334E-001 -0.75227930E+001 -0.42150782E-001  0.18518480E+000 -0.38717915E-001  0.19382769E+000
  0.49961334E-001 -0.64901752E+001  0.19539417E+000  0.13922139E-001 -0.97584042E-001  0.21885007E+000
  0.49961334E-001 -0.65617188E+001 -0.46020080E-001 -0.16693629E+000  0.13112720E+000  0.21720938E+000
  0.49961334E-001 -0.66052763E+001 -0.82191430E-001 -0.10275800E+000 -0.17155087E+000  0.21620440E+000
  0.49961334E-001 -0.66250831E+001  0.97092341E-001 -0.19052381E+000  0.28636133E-001  0.21574585E+000
  0.49961334E-001 -0.66448931E+001  0.16786175E+000 -0.22098577E-001  0.13297465E+000  0.21528626E+000
  0.49961334E-001 -0.66883546E+001 -0.21415486E+000  0.34982752E-002  0.62462504E-002  0.21427449E+000
  0.49961334E-001 -0.66961016E+001  0.10436968E+000  0.18683835E+000 -0.58726449E-002  0.21409364E+000
  0.49961334E-001 -0.67214349E+001  0.19356494E+000  0.89604221E-001  0.92979931E-002  0.21350118E+000
  0.49961334E-001 -0.67347688E+001  0.11707673E+000 -0.14933918E+000 -0.97161030E-001  0.21318869E+000
  0.49961334E-001 -0.68505339E+001  0.73788760E-001  0.16834212E+000  0.10250812E+000  0.21045609E+000
  0.49961334E-001 -0.68794010E+001 -0.15322760E+000 -0.91469325E-001  0.11026222E+000  0.20976914E+000
  0.49961334E-001 -0.69122026E+001 -0.55578624E-001 -0.10091683E+000 -0.17436137E+000  0.20898583E+000
  0.49961334E-001 -0.72480430E+001  0.64591869E-002 -0.86861975E-001 -0.18091421E+000  0.20079012E+000
  0.49961334E-001 -0.72554561E+001 -0.33959957E-001 -0.19611167E+000  0.25089349E-001  0.20060544E+000
  0.49961334E-001 -0.72675874E+001 -0.92953845E-001 -0.12814533E+000  0.12271751E+000  0.20030285E+000
  0.49961334E-001 -0.73550509E+001  0.13452543E+000  0.21196341E-002  0.14541324E+000  0.19810753E+000
  0.49961334E-001 -0.74810496E+001 -0.18272817E+000  0.65994410E-001 -0.15548695E-001  0.19490154E+000
  0.49961334E-001 -0.74821068E+001  0.21098512E-001  0.19371846E+000 -0.20113438E-002  0.19487441E+000
  0.49961334E-001 -0.74973853E+001  0.47311223E-002  0.11316415E+000 -0.15809726E+000  0.19448201E+000
  0.49961334E-001 -0.76092819E+001  0.10265626E+000  0.16039366E+000 -0.20972673E-001  0.19158362E+000
  0.49961334E-001 -0.76152271E+001 -0.12444099E+000 -0.11313562E+000  0.91430871E-001  0.19142840E+000
  0.49961334E-001 -0.76365704E+001 -0.16890660E+000  0.72915437E-001 -0.50845851E-001  0.19087011E+000
  0.49961334E-001 -0.76396357E+001 -0.58408736E-001  0.57444481E-003  0.18162829E+000  0.19078980E+000
  0.49961334E-001 -0.76697883E+001  0.11719254E-001  0.14333362E+000  0.12416664E+000  0.18999795E+000
  0.49961334E-001 -0.76844678E+001 -0.55912461E-001 -0.10822794E+000 -0.14530291E+000  0.18961125E+000
  0.49961334E-001 -0.77331317E+001  0.90947225E-001  0.25187315E-001  0.16297235E+000  0.18832362E+000
  0.49961334E-001 -0.77549625E+001  0.74456694E-001 -0.89435663E-001 -0.14732597E+000  0.18774312E+000
  0.49961334E-001 -0.77801403E+001  0.36644961E-001  0.55794189E-001 -0.17475656E+000  0.18707138E+000
  0.49961334E-001 -0.78103347E+001 -0.15685454E+000 -0.75443749E-001  0.66322318E-001  0.18626260E+000
  0.49961334E-001 -0.78338278E+001  0.16427629E+000 -0.80977205E-001  0.30245972E-001  0.18563089E+000
  0.49961334E-001 -0.78801588E+001  0.13470025E+000  0.12374782E+000 -0.23191297E-001  0.18437873E+000
  0.49961334E-001 -0.78892373E+001 -0.14114944E+000  0.10668561E+000 -0.50987715E-001  0.18413237E+000
  0.49961334E-001 -0.79518698E+001  0.15324262E+000  0.88339807E-001 -0.44622676E-001  0.18242370E+000
  0.49961334E-001 -0.79964616E+001 -0.16474821E+000  0.17217124E-001  0.73444439E-001  0.18119737E+000
  0.49961334E-001 -0.80201135E+001 -0.17994141E+000  0.14430492E-001  0.29695763E-002  0.18054354E+000
  0.49961334E-001 -0.80359983E+001  0.46730685E-001  0.98958010E-001  0.14304082E+000  0.18010309E+000
  0.49961334E-001 -0.80553759E+001 -0.13193141E+000  0.82779965E-001  0.89358402E-001  0.17956432E+000
  0.49961334E-001 -0.80558759E+001  0.17284342E+000 -0.17265225E-001 -0.45446789E-001  0.17955040E+000
  0.49961334E-001 -0.80816727E+001 -0.16634724E+000 -0.53764352E-001  0.37661240E-001  0.17883058E+000
  0.49961334E-001 -0.81777280E+001  0.13412982E+000  0.23917069E-001  0.11161088E+000  0.17612446E+000
  0.49961334E-001 -0.81867645E+001  0.19868874E-002 -0.19187730E-002 -0.17584604E+000  0.17586773E+000
  0.49961334E-001 -0.82556939E+001 -0.79634342E-002  0.14613922E+000  0.93915268E-001  0.17389700E+000
  0.49961334E-001 -0.83535355E+001 -0.46471046E-002  0.33068968E-001 -0.16776948E+000  0.17106066E+000
  0.49961334E-001 -0.83734090E+001  0.13913130E+000 -0.97906185E-001  0.10948674E-001  0.17047878E+000
  0.49961334E-001 -0.83981077E+001  0.76380788E-001  0.10081684E+000 -0.11321646E+000  0.16975284E+000
  0.49961334E-001 -0.84374780E+001  0.13742676E+000 -0.10714454E-001  0.97063947E-001  0.16858922E+000
  0.49961334E-001 -0.85672283E+001 -0.13416514E-001 -0.75547580E-002 -0.16397483E+000  0.16469615E+000
  0.49961334E-001 -0.85856910E+001  0.17367430E-001 -0.54305905E-002 -0.16312288E+000  0.16413468E+000
  0.49961334E-001 -0.86335872E+001  0.14099997E+000  0.74707376E-001 -0.31607734E-001  0.16266909E+000
  0.49961334E-001 -0.86671016E+001 -0.29429325E-001  0.15881523E+000  0.61419732E-002  0.16163566E+000
  0.49961334E-001 -0.87155884E+001 -0.12667047E+000  0.66726068E-001 -0.71717810E-001  0.16012876E+000
  0.49961334E-001 -0.87193709E+001 -0.17029024E-001 -0.79729276E-001  0.13768315E+000  0.16001061E+000
  0.49961334E-001 -0.87505424E+001  0.10830435E+000  0.11161582E+000  0.33222819E-001  0.15903358E+000
  0.49961334E-001 -0.87666395E+001 -0.91495208E-001 -0.93280381E-001 -0.89766956E-001  0.15852668E+000
  0.49961334E-001 -0.88082524E+001 -0.71976850E-001 -0.15362907E-001 -0.13891686E+000  0.15720872E+000
  0.49961334E-001 -0.88085236E+001 -0.57768019E-001 -0.28930198E-002  0.14617234E+000  0.15720009E+000
  0.49961334E-001 -0.88147833E+001 -0.94932486E-001  0.23913598E-001  0.12274052E+000  0.15700086E+000
  0.49961334E-001 -0.88876988E+001 -0.63746990E-001 -0.69927015E-001  0.12233826E+000  0.15466130E+000
  0.49961334E-001 -0.89062512E+001  0.30050645E-001 -0.22178634E-001  0.14946457E+000  0.15406035E+000
  0.49961334E-001 -0.89501018E+001 -0.17631113E-003  0.66952396E-001  0.13716206E+000  0.15263055E+000
  0.49961334E-001 -0.89613342E+001  0.12938367E+000 -0.80261924E-001 -0.12852609E-002  0.15226215E+000
  0.49961334E-001 -0.89733902E+001  0.10804053E+000 -0.21296188E-001  0.10457973E+000  0.15186574E+000
  0.49961334E-001 -0.90308281E+001 -0.52988562E-001 -0.80998683E-001 -0.11454365E+000  0.14996274E+000
  0.49961334E-001 -0.90427682E+001 -0.67903442E-001 -0.11963327E+000 -0.58706271E-001  0.14956411E+000
  0.49961334E-001 -0.90500390E+001  0.11975145E+000  0.84648105E-001  0.28124770E-001  0.14932084E+000
  0.49961334E-001 -0.90623888E+001  0.13710791E+000  0.48033430E-001  0.32671491E-001  0.14890674E+000
  0.49961334E-001 -0.90667001E+001 -0.57638588E-001  0.89020605E-001 -0.10432271E+000  0.14876190E+000
  0.49961334E-001 -0.90840845E+001  0.20674759E-001  0.56056960E-001  0.13559657E+000  0.14817645E+000
  0.49961334E-001 -0.91424928E+001 -0.71042026E-001  0.11340187E+000 -0.58866138E-001  0.14619226E+000
  0.49961334E-001 -0.91533665E+001 -0.10620554E+000  0.16941683E-001 -0.98472347E-001  0.14581989E+000
  0.49961334E-001 -0.91857062E+001 -0.72746093E-001 -0.12317584E+000  0.21811905E-001  0.14470674E+000
  0.49961334E-001 -0.92091687E+001  0.28464292E-001  0.58478158E-001 -0.12835695E+000  0.14389377E+000
  0.49961334E-001 -0.92247808E+001 -0.14037576E+000 -0.27942649E-001  0.79467386E-002  0.14335026E+000
  0.49961334E-001 -0.92561233E+001  0.56339848E-001 -0.94845389E-001  0.89811164E-001  0.14225284E+000
  0.49961334E-001 -0.93030102E+001 -0.72866965E-001  0.35448677E-001 -0.11489473E+000  0.14059517E+000
  0.49961334E-001 -0.93069936E+001  0.10236485E+000  0.55391722E-001 -0.78615282E-001  0.14045344E+000
  0.49961334E-001 -0.93282937E+001 -0.13405857E-001  0.10373461E+000 -0.92593631E-001  0.13969312E+000
  0.49961334E-001 -0.93326813E+001  0.68025361E-001  0.56111908E-001 -0.10814016E+000  0.13953598E+000
  0.49961334E-001 -0.93480061E+001  0.33709846E-002 -0.13131357E+000  0.45413939E-001  0.13898577E+000
  0.49961334E-001 -0.93685860E+001 -0.75062071E-001  0.11601118E+000 -0.42821808E-002  0.13824343E+000
  0.49961334E-001 -0.93700163E+001 -0.10925498E+000 -0.84612617E-001 -0.99742486E-003  0.13819168E+000
  0.49961334E-001 -0.93713840E+001  0.96855101E-001  0.66635888E-001  0.72539727E-001  0.13814219E+000
  0.49961334E-001 -0.93797354E+001 -0.12125286E+000  0.36265393E-001  0.54610583E-001  0.13783958E+000
  0.49961334E-001 -0.94668493E+001 -0.42801847E-001  0.30367496E-001 -0.12399366E+000  0.13464253E+000
  0.49961334E-001 -0.94675868E+001 -0.97563264E-001 -0.19122891E-001 -0.90757705E-001  0.13461514E+000
  0.49961334E-001 -0.94712601E+001  0.87596954E-001 -0.52235443E-001 -0.87651217E-001  0.13447864E+000
  0.49961334E-001 -0.94833229E+001  0.99050487E-001  0.43345671E-001 -0.79208770E-001  0.13402938E+000
  0.49961334E-001 -0.95088825E+001 -0.13117451E+000 -0.19802057E-001 -0.10459737E-001  0.13307246E+000
  0.49961334E-001 -0.95236998E+001  0.12024449E+000  0.22732745E-001 -0.50838879E-001  0.13251455E+000
  0.49961334E-001 -0.95439173E+001  0.77284804E-001 -0.16787634E-001 -0.10537156E+000  0.13174950E+000
  0.49961334E-001 -0.95455969E+001  0.45137652E-001 -0.13681673E-002  0.12370067E+000  0.13168575E+000
  0.49961334E-001 -0.95573832E+001 -0.11315825E+000  0.62854556E-001  0.21628407E-001  0.13123746E+000
  0.49961334E-001 -0.95708608E+001 -0.69670999E-001  0.17928736E-001 -0.10914673E+000  0.13072298E+000
  0.49961334E-001 -0.95784184E+001 -0.11871107E-001  0.82696857E-001 -0.10016600E+000  0.13043359E+000
  0.49961334E-001 -0.96060914E+001 -0.22853978E-002 -0.78336550E-001 -0.10292887E+000  0.12936843E+000
  0.49961334E-001 -0.96190385E+001 -0.90082114E-001 -0.30028648E-001  0.87121823E-001  0.12886706E+000
  0.49961334E-001 -0.96405438E+001 -0.11215952E+000  0.10478051E-001  0.60845046E-001  0.12802994E+000
  0.49961334E-001 -0.96689393E+001  0.90841465E-001  0.42286657E-001  0.77893376E-001  0.12691616E+000
  0.49961334E-001 -0.97141877E+001 -0.35777559E-003 -0.90408066E-002  0.12479328E+000  0.12512085E+000
  0.49961334E-001 -0.97179998E+001  0.11892086E+000  0.38252470E-001  0.34180375E-002  0.12496842E+000
  0.49961334E-001 -0.97193629E+001 -0.67725269E-001 -0.10364476E+000 -0.16568843E-001  0.12491387E+000
  0.49961334E-001 -0.97231859E+001  0.76305414E-001  0.35870638E-001 -0.91956657E-001  0.12476075E+000
  0.49961334E-001 -0.97404215E+001  0.51528783E-002 -0.93273717E-001  0.81647722E-001  0.12406808E+000
  0.49961334E-001 -0.97602772E+001  0.10061124E+000  0.70580462E-001 -0.94925811E-002  0.12326529E+000
  0.49961334E-001 -0.97964549E+001 -0.11213142E+000  0.64359951E-002 -0.47092230E-001  0.12178898E+000
  0.49961334E-001 -0.98078068E+001  0.54818686E-001 -0.36261429E-001  0.10197577E+000  0.12132204E+000
  0.49961334E-001 -0.98079860E+001 -0.22640615E-001  0.68888459E-001  0.97257527E-001  0.12131465E+000
  0.49961334E-001 -0.98174354E+001  0.28166111E-001  0.69931690E-001  0.94546173E-001  0.12092456E+000
  0.49961334E-001 -0.98175327E+001 -0.90921780E-001 -0.59966944E-001  0.52525927E-001  0.12092054E+000
  0.49961334E-001 -0.98322895E+001  0.39170424E-001  0.11184796E+000 -0.20734503E-001  0.12030881E+000
  0.49961334E-001 -0.98363175E+001 -0.27257814E-001 -0.11583062E+000  0.16559227E-001  0.12014129E+000
  0.49961334E-001 -0.98407930E+001  0.11872337E+000  0.89153507E-002  0.14644212E-001  0.11995488E+000
  0.49961334E-001 -0.98420202E+001 -0.24086821E-001 -0.50233398E-001  0.10617595E+000  0.11990372E+000
  0.49961334E-001 -0.98435403E+001  0.82026781E-001  0.36175274E-001 -0.79527720E-001  0.11984032E+000
  0.49961334E-001 -0.98675669E+001  0.59306598E-001  0.10239456E+000  0.10932412E-001  0.11883365E+000
  0.49961334E-001 -0.98690343E+001 -0.68745730E-001 -0.41773966E-001  0.87382618E-001  0.11877189E+000
  0.49961334E-001 -0.98731457E+001 -0.55061171E-001  0.55578692E-001 -0.89134299E-001  0.11859868E+000
  0.49961334E-001 -0.99136413E+001  0.43836198E-001  0.34351961E-002 -0.10829256E+000  0.11687896E+000
  0.49961334E-001 -0.99145333E+001 -0.43068290E-002 -0.11636698E+000  0.95889334E-002  0.11684079E+000
  0.49961334E-001 -0.10001347E+002  0.71063952E-001  0.86823473E-001 -0.13972641E-001  0.11306474E+000
  0.49961334E-001 -0.10014218E+002 -0.72103727E-001 -0.32365678E-001  0.80052728E-001  0.11249411E+000
  0.49961334E-001 -0.10042583E+002 -0.58439184E-001  0.28632202E-001 -0.90201639E-001  0.11122624E+000
  0.49961334E-001 -0.10071026E+002  0.86274291E-001  0.66116266E-001 -0.16499454E-001  0.10994019E+000
  0.49961334E-001 -0.10075858E+002 -0.70267462E-001 -0.14740967E-001 -0.82968159E-001  0.10972022E+000
  0.49961334E-001 -0.10077071E+002 -0.10037024E+000  0.19032202E-001  0.39874624E-001  0.10966493E+000
  0.49961334E-001 -0.10141868E+002  0.32455696E-002 -0.57604584E-001 -0.89719579E-001  0.10666970E+000
  0.49961334E-001 -0.10162972E+002 -0.10115221E+000  0.65442989E-002  0.29879445E-001  0.10567582E+000
  0.49961334E-001 -0.10188341E+002  0.27385844E-001  0.92478624E-001 -0.40142475E-001  0.10446865E+000
  0.49961334E-001 -0.10207612E+002 -0.37474838E-001 -0.95513397E-001 -0.13921704E-001  0.10354220E+000
  0.49961334E-001 -0.10229250E+002 -0.50402439E-001 -0.87056662E-001  0.19629928E-001  0.10249196E+000
  0.49961334E-001 -0.10239026E+002  0.48654660E-001 -0.89661646E-001  0.59953296E-003  0.10201395E+000
  0.49961334E-001 -0.10248597E+002 -0.46552344E-001 -0.70931606E-001 -0.55791753E-001  0.10154375E+000
  0.49961334E-001 -0.10251065E+002  0.11050202E-001 -0.43907031E-001  0.90755262E-001  0.10142215E+000
  0.49961334E-001 -0.10266995E+002  0.25747394E-001  0.54004827E-001 -0.80917904E-001  0.10063378E+000
  0.49961334E-001 -0.10278007E+002  0.56605265E-001  0.49186265E-001  0.66284174E-001  0.10008515E+000
  0.49961334E-001 -0.10308867E+002 -0.78959040E-001  0.58624480E-001  0.60890515E-002  0.98531397E-001
  0.49961334E-001 -0.10349438E+002 -0.87266427E-001 -0.37942155E-001  0.15738250E-001  0.96450656E-001
  0.49961334E-001 -0.10367622E+002  0.65444754E-001  0.49339303E-001  0.49025528E-001  0.95503325E-001
  0.49961334E-001 -0.10383404E+002 -0.30587913E-001 -0.33722460E-001  0.83007443E-001  0.94673440E-001
  0.49961334E-001 -0.10388259E+002  0.72998994E-001 -0.45580275E-002  0.59706621E-001  0.94416679E-001
  0.49961334E-001 -0.10391404E+002 -0.19234924E-001 -0.31712230E-001 -0.86645346E-001  0.94250007E-001
  0.49961334E-001 -0.10402250E+002 -0.54841969E-001 -0.69039846E-001 -0.31630082E-001  0.93672856E-001
  0.49961334E-001 -0.10458731E+002 -0.75177366E-001 -0.16590425E-002 -0.50550994E-001  0.90607902E-001
  0.49961334E-001 -0.10468133E+002 -0.64257194E-001  0.60602286E-001  0.17724267E-001  0.90087589E-001
  0.49961334E-001 -0.10478843E+002  0.75023833E-001 -0.43898850E-001  0.21283650E-001  0.89491219E-001
  0.49961334E-001 -0.10494749E+002  0.21022355E-001  0.43894850E-001 -0.74033232E-001  0.88598062E-001
  0.49961334E-001 -0.10531802E+002  0.72778662E-001 -0.20041574E-001  0.42198167E-001  0.86481695E-001
  0.49961334E-001 -0.10539007E+002 -0.77683992E-001  0.16322584E-001  0.33253694E-001  0.86064148E-001
  0.49961334E-001 -0.10541453E+002 -0.63893279E-001  0.18209315E-001  0.54485296E-001  0.85921928E-001
  0.49961334E-001 -0.10554581E+002  0.19818106E-002 -0.84180925E-001 -0.12686054E-001  0.85154516E-001
  0.49961334E-001 -0.10581515E+002  0.73896264E-001  0.26952891E-001  0.28192852E-001  0.83558082E-001
  0.49961334E-001 -0.10596127E+002 -0.63985256E-001 -0.20117570E-002 -0.52322804E-001  0.82679115E-001
  0.49961334E-001 -0.10601869E+002  0.37028052E-004  0.76387451E-001 -0.30714317E-001  0.82331120E-001
  0.49961334E-001 -0.10608882E+002 -0.32287494E-001 -0.75269599E-001 -0.54106913E-003  0.81904137E-001
  0.49961334E-001 -0.10623032E+002  0.36961349E-001 -0.39172929E-002  0.72008984E-001  0.81035672E-001
  0.49961334E-001 -0.10709517E+002  0.31724669E-001 -0.40526139E-001  0.55254955E-001  0.75511142E-001
  0.49961334E-001 -0.10710656E+002  0.18900496E-001  0.66477737E-001 -0.30232842E-001  0.75435688E-001
  0.49961334E-001 -0.10714525E+002  0.16690983E-002  0.58052704E-001 -0.47738386E-001  0.75178826E-001
  0.49961334E-001 -0.10721122E+002 -0.70341509E-001  0.24710574E-001 -0.52288929E-002  0.74738756E-001
  0.49961334E-001 -0.10741271E+002  0.42768604E-001 -0.37547317E-001  0.46318889E-001  0.73378430E-001
  0.49961334E-001 -0.10745763E+002 -0.55309817E-003  0.24215019E-002  0.73029482E-001  0.73071710E-001
  0.49961334E-001 -0.78959726E+001 -0.17199856E-001  0.47524857E-001 -0.38789441E-001  0.63710814E-001
