  0.10000000E+001  0.51111385E+001  0.25069186E+000  0.79157889E-001  0.25498588E+000  0.36623787E+000
  0.10000000E+001  0.55900470E+001 -0.13832349E+000  0.29854630E+000 -0.17508850E+000  0.37271875E+000
  0.10000000E+001 -0.63072929E+000 -0.76451442E-001 -0.11124243E+000 -0.24185078E+000  0.27696841E+000
  0.10000000E+001 -0.52650246E+000 -0.24408544E+000  0.10860610E+000 -0.79879807E-001  0.27884363E+000
  0.10000000E+001 -0.29220595E+000 -0.48689147E-001 -0.27730582E+000  0.28767762E-001  0.28301366E+000
  0.10000000E+001  0.50266822E+001 -0.33070079E+000 -0.13705262E+000  0.71688093E-001  0.36508303E+000
  0.10000000E+001 -0.28129554E+000 -0.66289494E-001 -0.19593383E+000  0.19344631E+000  0.28320635E+000
  0.10000000E+001  0.31314354E+001 -0.12062930E+000  0.30710965E+000  0.73928219E-001  0.33813185E+000
  0.10000000E+001  0.30925153E+001  0.26189686E+000 -0.18653637E+000 -0.10275292E+000  0.33755584E+000
  0.10000000E+001  0.28428910E+001 -0.27097138E+000  0.11682523E+000 -0.15612201E+000  0.33383784E+000
  0.10000000E+001 -0.27419717E+000 -0.22733353E+000 -0.24152723E-001  0.16737065E+000  0.28333165E+000
  0.10000000E+001 -0.22800990E+000 -0.70061835E-001 -0.25715897E+000 -0.98485007E-001  0.28414555E+000
  0.10000000E+001  0.47060332E+000 -0.22451290E+000  0.15025796E+000  0.12141388E+000  0.29618377E+000
  0.10000000E+001  0.72270151E+000 -0.36585832E-001 -0.28868612E+000 -0.74616409E-001  0.30040940E+000
  0.10000000E+001  0.14951408E+001  0.40943558E-001  0.58706717E-001  0.30470863E+000  0.31300192E+000
  0.10000000E+001 -0.10731219E+001  0.20259512E+000 -0.13811206E+000  0.11030798E+000  0.26886349E+000
  0.10000000E+001 -0.11101639E+001 -0.11449418E+000 -0.22354647E+000  0.93995809E-001  0.26817374E+000
  0.10000000E+001 -0.12018315E+001  0.50208418E-001  0.46071773E-001 -0.25759850E+000  0.26645915E+000
  0.10000000E+001 -0.13305011E+001 -0.24479995E-001 -0.25598900E+000 -0.59867741E-001  0.26403368E+000
  0.10000000E+001 -0.14032087E+001  0.91004485E-001 -0.54222900E-001 -0.24034302E+000  0.26265321E+000
  0.10000000E+001 -0.14312229E+001  0.69898176E-001  0.22106131E+000 -0.12228126E+000  0.26211937E+000
  0.10000000E+001 -0.19282034E+001 -0.73616209E-001 -0.14134277E+000  0.19580509E+000  0.25246140E+000
  0.10000000E+001 -0.20863462E+001  0.20443204E+000 -0.75413827E-001  0.12114301E+000  0.24930971E+000
  0.10000000E+001 -0.22301404E+001  0.22456023E+000 -0.70670191E-001 -0.72772351E-001  0.24640899E+000
  0.10000000E+001 -0.45454685E+001  0.60729254E-001  0.43008737E-002  0.18400426E+000  0.19381462E+000
  0.10000000E+001 -0.23520154E+001  0.11021878E+000  0.15984036E+000  0.14765337E+000  0.24392343E+000
  0.10000000E+001 -0.23901769E+001  0.19131284E-001 -0.23726502E+000 -0.49561355E-001  0.24313993E+000
  0.10000000E+001 -0.25197338E+001 -0.15720789E-001  0.72648587E-001 -0.22868427E+000  0.24046092E+000
  0.10000000E+001 -0.25287410E+001  0.14334622E-001 -0.23742686E+000  0.33976274E-001  0.24027356E+000
  0.10000000E+001 -0.27563972E+001  0.10062062E+000 -0.17713519E-001  0.21217102E+000  0.23548847E+000
  0.10000000E+001 -0.28175591E+001  0.21168208E+000  0.69167190E-001  0.72455504E-001  0.23418626E+000
  0.10000000E+001 -0.29392021E+001  0.13702024E+000  0.58403364E-001 -0.17731687E+000  0.23157455E+000
  0.10000000E+001 -0.30111522E+001 -0.21244797E+000  0.15635929E-001 -0.86767789E-001  0.23001581E+000
  0.10000000E+001 -0.30145670E+001  0.13810715E+000 -0.25439644E-001  0.18207790E+000  0.22994156E+000
  0.10000000E+001 -0.31750261E+001  0.62140888E-001 -0.17979019E+000 -0.12281095E+000  0.22642556E+000
  0.10000000E+001 -0.32574124E+001 -0.14097435E+000  0.11906564E+000 -0.12804013E+000  0.22459891E+000
  0.10000000E+001 -0.45449619E+001 -0.42150782E-001  0.18518480E+000 -0.38717915E-001  0.19382769E+000
  0.10000000E+001 -0.33437437E+001  0.15592694E+000 -0.13816982E+000  0.78595446E-001  0.22266871E+000
  0.10000000E+001 -0.33449193E+001 -0.13784493E+000  0.14408903E+000  0.99028936E-001  0.22264232E+000
  0.10000000E+001 -0.45195543E+001  0.47311223E-002  0.11316415E+000 -0.15809726E+000  0.19448201E+000
  0.10000000E+001 -0.35121423E+001 -0.91445352E-001  0.64123238E-001  0.18821086E+000  0.21885468E+000
  0.10000000E+001 -0.35838878E+001 -0.46020080E-001 -0.16693629E+000  0.13112720E+000  0.21720938E+000
  0.10000000E+001 -0.36274453E+001 -0.82191430E-001 -0.10275800E+000 -0.17155087E+000  0.21620440E+000
  0.10000000E+001 -0.36472520E+001  0.97092341E-001 -0.19052381E+000  0.28636133E-001  0.21574585E+000
  0.10000000E+001 -0.36670620E+001  0.16786175E+000 -0.22098577E-001  0.13297465E+000  0.21528626E+000
  0.10000000E+001 -0.37105235E+001 -0.21415486E+000  0.34982752E-002  0.62462504E-002  0.21427449E+000
  0.10000000E+001 -0.37436038E+001  0.19356494E+000  0.89604221E-001  0.92979931E-002  0.21350118E+000
  0.10000000E+001 -0.37569378E+001  0.11707673E+000 -0.14933918E+000 -0.97161030E-001  0.21318869E+000
  0.10000000E+001 -0.38727028E+001  0.73788760E-001  0.16834212E+000  0.10250812E+000  0.21045609E+000
  0.10000000E+001 -0.39015700E+001 -0.15322760E+000 -0.91469325E-001  0.11026222E+000  0.20976914E+000
  0.10000000E+001 -0.39343716E+001 -0.55578624E-001 -0.10091683E+000 -0.17436137E+000  0.20898583E+000
  0.10000000E+001 -0.40504997E+001  0.29277877E-001 -0.20408878E+000  0.20911439E-002  0.20618874E+000
  0.10000000E+001 -0.42702120E+001  0.64591869E-002 -0.86861975E-001 -0.18091421E+000  0.20079012E+000
  0.10000000E+001 -0.42776251E+001 -0.33959957E-001 -0.19611167E+000  0.25089349E-001  0.20060544E+000
  0.10000000E+001 -0.42897564E+001 -0.92953845E-001 -0.12814533E+000  0.12271751E+000  0.20030285E+000
  0.10000000E+001 -0.45032185E+001 -0.18272817E+000  0.65994410E-001 -0.15548695E-001  0.19490154E+000
  0.10000000E+001 -0.46314508E+001  0.10265626E+000  0.16039366E+000 -0.20972673E-001  0.19158362E+000
  0.10000000E+001 -0.46587394E+001 -0.16890660E+000  0.72915437E-001 -0.50845851E-001  0.19087011E+000
  0.10000000E+001 -0.46618047E+001 -0.58408736E-001  0.57444481E-003  0.18162829E+000  0.19078980E+000
  0.10000000E+001 -0.46919573E+001  0.11719254E-001  0.14333362E+000  0.12416664E+000  0.18999795E+000
  0.10000000E+001 -0.47066368E+001 -0.55912461E-001 -0.10822794E+000 -0.14530291E+000  0.18961125E+000
  0.10000000E+001 -0.47553007E+001  0.90947225E-001  0.25187315E-001  0.16297235E+000  0.18832362E+000
  0.10000000E+001 -0.48023093E+001  0.36644961E-001  0.55794189E-001 -0.17475656E+000  0.18707138E+000
  0.10000000E+001 -0.48325037E+001 -0.15685454E+000 -0.75443749E-001  0.66322318E-001  0.18626260E+000
  0.10000000E+001 -0.48559967E+001  0.16427629E+000 -0.80977205E-001  0.30245972E-001  0.18563089E+000
  0.10000000E+001 -0.49023277E+001  0.13470025E+000  0.12374782E+000 -0.23191297E-001  0.18437873E+000
  0.10000000E+001 -0.49114063E+001 -0.14114944E+000  0.10668561E+000 -0.50987715E-001  0.18413237E+000
  0.10000000E+001 -0.49740387E+001  0.15324262E+000  0.88339807E-001 -0.44622676E-001  0.18242370E+000
  0.10000000E+001 -0.50186305E+001 -0.16474821E+000  0.17217124E-001  0.73444439E-001  0.18119737E+000
  0.10000000E+001 -0.50422824E+001 -0.17994141E+000  0.14430492E-001  0.29695763E-002  0.18054354E+000
  0.10000000E+001 -0.50581672E+001  0.46730685E-001  0.98958010E-001  0.14304082E+000  0.18010309E+000
  0.10000000E+001 -0.50780449E+001  0.17284342E+000 -0.17265225E-001 -0.45446789E-001  0.17955040E+000
  0.10000000E+001 -0.51038416E+001 -0.16634724E+000 -0.53764352E-001  0.37661240E-001  0.17883058E+000
  0.10000000E+001 -0.51109655E+001 -0.76433132E-001  0.15520463E+000 -0.44481886E-001  0.17863129E+000
  0.10000000E+001 -0.51998970E+001  0.13412982E+000  0.23917069E-001  0.11161088E+000  0.17612446E+000
  0.10000000E+001 -0.52089334E+001  0.19868874E-002 -0.19187730E-002 -0.17584604E+000  0.17586773E+000
  0.10000000E+001 -0.52273324E+001 -0.12707804E+000 -0.88461692E-001 -0.82287125E-001  0.17534386E+000
  0.10000000E+001 -0.52465304E+001  0.10884097E+000 -0.10196820E+000  0.91157117E-001  0.17479557E+000
  0.10000000E+001 -0.52736386E+001  0.52601768E-001 -0.10866297E+000 -0.12533084E+000  0.17401841E+000
  0.10000000E+001 -0.52778628E+001 -0.79634342E-002  0.14613922E+000  0.93915268E-001  0.17389700E+000
  0.10000000E+001 -0.53757044E+001 -0.46471046E-002  0.33068968E-001 -0.16776948E+000  0.17106066E+000
  0.10000000E+001 -0.53955780E+001  0.13913130E+000 -0.97906185E-001  0.10948674E-001  0.17047878E+000
  0.10000000E+001 -0.54202767E+001  0.76380788E-001  0.10081684E+000 -0.11321646E+000  0.16975284E+000
  0.10000000E+001 -0.54596470E+001  0.13742676E+000 -0.10714454E-001  0.97063947E-001  0.16858922E+000
  0.10000000E+001 -0.55893973E+001 -0.13416514E-001 -0.75547580E-002 -0.16397483E+000  0.16469615E+000
  0.10000000E+001 -0.56078600E+001  0.17367430E-001 -0.54305905E-002 -0.16312288E+000  0.16413468E+000
  0.10000000E+001 -0.56557561E+001  0.14099997E+000  0.74707376E-001 -0.31607734E-001  0.16266909E+000
  0.10000000E+001 -0.56892706E+001 -0.29429325E-001  0.15881523E+000  0.61419732E-002  0.16163566E+000
  0.10000000E+001 -0.57377573E+001 -0.12667047E+000  0.66726068E-001 -0.71717810E-001  0.16012876E+000
  0.10000000E+001 -0.57415399E+001 -0.17029024E-001 -0.79729276E-001  0.13768315E+000  0.16001061E+000
  0.10000000E+001 -0.57727113E+001  0.10830435E+000  0.11161582E+000  0.33222819E-001  0.15903358E+000
  0.10000000E+001 -0.57888085E+001 -0.91495208E-001 -0.93280381E-001 -0.89766956E-001  0.15852668E+000
  0.10000000E+001 -0.58304213E+001 -0.71976850E-001 -0.15362907E-001 -0.13891686E+000  0.15720872E+000
  0.10000000E+001 -0.58306926E+001 -0.57768019E-001 -0.28930198E-002  0.14617234E+000  0.15720009E+000
  0.10000000E+001 -0.58369522E+001 -0.94932486E-001  0.23913598E-001  0.12274052E+000  0.15700086E+000
  0.10000000E+001 -0.59098677E+001 -0.63746990E-001 -0.69927015E-001  0.12233826E+000  0.15466130E+000
  0.10000000E+001 -0.59284202E+001  0.30050645E-001 -0.22178634E-001  0.14946457E+000  0.15406035E+000
  0.10000000E+001 -0.59722707E+001 -0.17631113E-003  0.66952396E-001  0.13716206E+000  0.15263055E+000
  0.10000000E+001 -0.59835032E+001  0.12938367E+000 -0.80261924E-001 -0.12852609E-002  0.15226215E+000
  0.10000000E+001 -0.59955591E+001  0.10804053E+000 -0.21296188E-001  0.10457973E+000  0.15186574E+000
  0.10000000E+001 -0.60529971E+001 -0.52988562E-001 -0.80998683E-001 -0.11454365E+000  0.14996274E+000
  0.10000000E+001 -0.60649371E+001 -0.67903442E-001 -0.11963327E+000 -0.58706271E-001  0.14956411E+000
  0.10000000E+001 -0.60722079E+001  0.11975145E+000  0.84648105E-001  0.28124770E-001  0.14932084E+000
  0.10000000E+001 -0.60845577E+001  0.13710791E+000  0.48033430E-001  0.32671491E-001  0.14890674E+000
  0.10000000E+001 -0.60888690E+001 -0.57638588E-001  0.89020605E-001 -0.10432271E+000  0.14876190E+000
  0.10000000E+001 -0.61062534E+001  0.20674759E-001  0.56056960E-001  0.13559657E+000  0.14817645E+000
  0.10000000E+001 -0.61646617E+001 -0.71042026E-001  0.11340187E+000 -0.58866138E-001  0.14619226E+000
  0.10000000E+001 -0.61755354E+001 -0.10620554E+000  0.16941683E-001 -0.98472347E-001  0.14581989E+000
  0.10000000E+001 -0.62078752E+001 -0.72746093E-001 -0.12317584E+000  0.21811905E-001  0.14470674E+000
  0.10000000E+001 -0.62313376E+001  0.28464292E-001  0.58478158E-001 -0.12835695E+000  0.14389377E+000
  0.10000000E+001 -0.62469497E+001 -0.14037576E+000 -0.27942649E-001  0.79467386E-002  0.14335026E+000
  0.10000000E+001 -0.62782922E+001  0.56339848E-001 -0.94845389E-001  0.89811164E-001  0.14225284E+000
  0.10000000E+001 -0.63251792E+001 -0.72866965E-001  0.35448677E-001 -0.11489473E+000  0.14059517E+000
  0.10000000E+001 -0.63291626E+001  0.10236485E+000  0.55391722E-001 -0.78615282E-001  0.14045344E+000
  0.10000000E+001 -0.63504627E+001 -0.13405857E-001  0.10373461E+000 -0.92593631E-001  0.13969312E+000
  0.10000000E+001 -0.63548503E+001  0.68025361E-001  0.56111908E-001 -0.10814016E+000  0.13953598E+000
  0.10000000E+001 -0.63701751E+001  0.33709846E-002 -0.13131357E+000  0.45413939E-001  0.13898577E+000
  0.10000000E+001 -0.63709826E+001  0.95500149E-001  0.10024592E+000  0.11808702E-001  0.13895671E+000
  0.10000000E+001 -0.63907549E+001 -0.75062071E-001  0.11601118E+000 -0.42821808E-002  0.13824343E+000
  0.10000000E+001 -0.63921853E+001 -0.10925498E+000 -0.84612617E-001 -0.99742486E-003  0.13819168E+000
  0.10000000E+001 -0.63935530E+001  0.96855101E-001  0.66635888E-001  0.72539727E-001  0.13814219E+000
  0.10000000E+001 -0.64019044E+001 -0.12125286E+000  0.36265393E-001  0.54610583E-001  0.13783958E+000
  0.10000000E+001 -0.64890182E+001 -0.42801847E-001  0.30367496E-001 -0.12399366E+000  0.13464253E+000
  0.10000000E+001 -0.64897557E+001 -0.97563264E-001 -0.19122891E-001 -0.90757705E-001  0.13461514E+000
  0.10000000E+001 -0.64934290E+001  0.87596954E-001 -0.52235443E-001 -0.87651217E-001  0.13447864E+000
  0.10000000E+001 -0.65054918E+001  0.99050487E-001  0.43345671E-001 -0.79208770E-001  0.13402938E+000
  0.10000000E+001 -0.65310515E+001 -0.13117451E+000 -0.19802057E-001 -0.10459737E-001  0.13307246E+000
  0.10000000E+001 -0.65458687E+001  0.12024449E+000  0.22732745E-001 -0.50838879E-001  0.13251455E+000
  0.10000000E+001 -0.65660863E+001  0.77284804E-001 -0.16787634E-001 -0.10537156E+000  0.13174950E+000
  0.10000000E+001 -0.65677658E+001  0.45137652E-001 -0.13681673E-002  0.12370067E+000  0.13168575E+000
  0.10000000E+001 -0.65795522E+001 -0.11315825E+000  0.62854556E-001  0.21628407E-001  0.13123746E+000
  0.10000000E+001 -0.65930297E+001 -0.69670999E-001  0.17928736E-001 -0.10914673E+000  0.13072298E+000
  0.10000000E+001 -0.66005873E+001 -0.11871107E-001  0.82696857E-001 -0.10016600E+000  0.13043359E+000
  0.10000000E+001 -0.66627128E+001 -0.11215952E+000  0.10478051E-001  0.60845046E-001  0.12802994E+000
  0.10000000E+001 -0.66911082E+001  0.90841465E-001  0.42286657E-001  0.77893376E-001  0.12691616E+000
  0.10000000E+001 -0.67363567E+001 -0.35777559E-003 -0.90408066E-002  0.12479328E+000  0.12512085E+000
  0.10000000E+001 -0.67625905E+001  0.51528783E-002 -0.93273717E-001  0.81647722E-001  0.12406808E+000
  0.10000000E+001 -0.67824461E+001  0.10061124E+000  0.70580462E-001 -0.94925811E-002  0.12326529E+000
  0.10000000E+001 -0.67965077E+001 -0.13663392E-001  0.11457515E+000 -0.41708068E-001  0.12269359E+000
  0.10000000E+001 -0.68169347E+001  0.10712548E+000 -0.39621676E-001 -0.42469992E-001  0.12185830E+000
  0.10000000E+001 -0.68186238E+001 -0.11213142E+000  0.64359951E-002 -0.47092230E-001  0.12178898E+000
  0.10000000E+001 -0.68270639E+001 -0.91124848E-001 -0.77326311E-001  0.21565204E-001  0.12144198E+000
  0.10000000E+001 -0.68299757E+001  0.54818686E-001 -0.36261429E-001  0.10197577E+000  0.12132204E+000
  0.10000000E+001 -0.68301550E+001 -0.22640615E-001  0.68888459E-001  0.97257527E-001  0.12131465E+000
  0.10000000E+001 -0.68396044E+001  0.28166111E-001  0.69931690E-001  0.94546173E-001  0.12092456E+000
  0.10000000E+001 -0.68397016E+001 -0.90921780E-001 -0.59966944E-001  0.52525927E-001  0.12092054E+000
  0.10000000E+001 -0.68425823E+001 -0.11839582E+000 -0.10425951E-002  0.23964854E-001  0.12080137E+000
  0.10000000E+001 -0.68544585E+001  0.39170424E-001  0.11184796E+000 -0.20734503E-001  0.12030881E+000
  0.10000000E+001 -0.68584865E+001 -0.27257814E-001 -0.11583062E+000  0.16559227E-001  0.12014129E+000
  0.10000000E+001 -0.68629620E+001  0.11872337E+000  0.89153507E-002  0.14644212E-001  0.11995488E+000
  0.10000000E+001 -0.68641891E+001 -0.24086821E-001 -0.50233398E-001  0.10617595E+000  0.11990372E+000
  0.10000000E+001 -0.68912032E+001 -0.68745730E-001 -0.41773966E-001  0.87382618E-001  0.11877189E+000
  0.10000000E+001 -0.68953147E+001 -0.55061171E-001  0.55578692E-001 -0.89134299E-001  0.11859868E+000
  0.10000000E+001 -0.69159147E+001 -0.50692377E-001  0.32952619E-001 -0.10101512E+000  0.11772700E+000
  0.10000000E+001 -0.69358102E+001  0.43836198E-001  0.34351961E-002 -0.10829256E+000  0.11687896E+000
  0.10000000E+001 -0.69367023E+001 -0.43068290E-002 -0.11636698E+000  0.95889334E-002  0.11684079E+000
  0.10000000E+001 -0.69368765E+001  0.10460524E+000 -0.51950689E-001 -0.29829185E-002  0.11683334E+000
  0.10000000E+001 -0.70235158E+001  0.71063952E-001  0.86823473E-001 -0.13972641E-001  0.11306474E+000
  0.10000000E+001 -0.70363870E+001 -0.72103727E-001 -0.32365678E-001  0.80052728E-001  0.11249411E+000
  0.10000000E+001 -0.70647517E+001 -0.58439184E-001  0.28632202E-001 -0.90201639E-001  0.11122624E+000
  0.10000000E+001 -0.70980266E+001 -0.70267462E-001 -0.14740967E-001 -0.82968159E-001  0.10972022E+000
  0.10000000E+001 -0.71006109E+001  0.88867571E-001  0.59514198E-001 -0.23943686E-001  0.10960239E+000
  0.10000000E+001 -0.71107688E+001 -0.89359482E-001 -0.10684869E-001 -0.61739957E-001  0.10913801E+000
  0.10000000E+001 -0.71287120E+001 -0.57799972E-001 -0.63863015E-001 -0.65668502E-001  0.10831285E+000
  0.10000000E+001 -0.71297356E+001  0.64604798E-001 -0.69473815E-001 -0.52163652E-001  0.10826559E+000
  0.10000000E+001 -0.71640369E+001  0.32455696E-002 -0.57604584E-001 -0.89719579E-001  0.10666970E+000
  0.10000000E+001 -0.71789007E+001 -0.74747581E-002 -0.10340196E+000  0.21953335E-001  0.10597069E+000
  0.10000000E+001 -0.71851414E+001 -0.10115221E+000  0.65442989E-002  0.29879445E-001  0.10567582E+000
  0.10000000E+001 -0.72099977E+001 -0.33179153E-001 -0.28161826E-002  0.99045595E-001  0.10449314E+000
  0.10000000E+001 -0.72297807E+001 -0.37474838E-001 -0.95513397E-001 -0.13921704E-001  0.10354220E+000
  0.10000000E+001 -0.72336374E+001 -0.22369964E-001  0.98169190E-001  0.23341251E-001  0.10335579E+000
  0.10000000E+001 -0.72557272E+001  0.78604724E-001 -0.64412772E-001 -0.11567795E-001  0.10228158E+000
  0.10000000E+001 -0.72569840E+001  0.61075467E-001  0.62885418E-001 -0.52575326E-001  0.10222012E+000
  0.10000000E+001 -0.72611948E+001  0.48654660E-001 -0.89661646E-001  0.59953296E-003  0.10201395E+000
  0.10000000E+001 -0.72732342E+001  0.11050202E-001 -0.43907031E-001  0.90755262E-001  0.10142215E+000
  0.10000000E+001 -0.72935125E+001 -0.11679217E-001  0.11323325E-001 -0.99091105E-001  0.10041747E+000
  0.10000000E+001 -0.72966074E+001  0.58158037E-001 -0.46122616E-001 -0.67402273E-001  0.10026325E+000
  0.10000000E+001 -0.73001757E+001  0.56605265E-001  0.49186265E-001  0.66284174E-001  0.10008515E+000
  0.10000000E+001 -0.73052156E+001 -0.59872909E-001 -0.67464440E-001 -0.42783427E-001  0.99833048E-001
  0.10000000E+001 -0.73310357E+001 -0.78959040E-001  0.58624480E-001  0.60890515E-002  0.98531397E-001
  0.10000000E+001 -0.73410819E+001 -0.46698136E-003 -0.90351285E-001  0.38005291E-001  0.98020278E-001
  0.10000000E+001 -0.73700279E+001  0.53014509E-001  0.67903352E-001  0.43555844E-001  0.96532456E-001
  0.10000000E+001 -0.73716065E+001 -0.87266427E-001 -0.37942155E-001  0.15738250E-001  0.96450656E-001
  0.10000000E+001 -0.73877101E+001 -0.11231781E-001  0.21259847E-001  0.92539498E-001  0.95612199E-001
  0.10000000E+001 -0.73889058E+001 -0.24225805E-001  0.75665539E-001 -0.53080812E-001  0.95549652E-001
  0.10000000E+001 -0.73897909E+001  0.65444754E-001  0.49339303E-001  0.49025528E-001  0.95503325E-001
  0.10000000E+001 -0.74055733E+001 -0.30587913E-001 -0.33722460E-001  0.83007443E-001  0.94673440E-001
  0.10000000E+001 -0.74104284E+001  0.72998994E-001 -0.45580275E-002  0.59706621E-001  0.94416679E-001
  0.10000000E+001 -0.74135730E+001 -0.19234924E-001 -0.31712230E-001 -0.86645346E-001  0.94250007E-001
  0.10000000E+001 -0.74234669E+001  0.42526916E-002  0.58328578E-001  0.73238079E-001  0.93723661E-001
  0.10000000E+001 -0.74434212E+001 -0.55045797E-001  0.73848146E-001 -0.10049517E-001  0.92653016E-001
  0.10000000E+001 -0.74809002E+001 -0.75177366E-001 -0.16590425E-002 -0.50550994E-001  0.90607902E-001
  0.10000000E+001 -0.74903020E+001 -0.64257194E-001  0.60602286E-001  0.17724267E-001  0.90087589E-001
  0.10000000E+001 -0.75010115E+001  0.75023833E-001 -0.43898850E-001  0.21283650E-001  0.89491219E-001
  0.10000000E+001 -0.75037690E+001  0.53853064E-001 -0.50305172E-001  0.50500900E-001  0.89337024E-001
  0.10000000E+001 -0.75169177E+001  0.21022355E-001  0.43894850E-001 -0.74033232E-001  0.88598062E-001
  0.10000000E+001 -0.75190344E+001  0.47960768E-001 -0.16325237E-001  0.72537580E-001  0.88478524E-001
  0.10000000E+001 -0.75557110E+001  0.39662683E-001  0.35569915E-002  0.76654437E-001  0.86381036E-001
  0.10000000E+001 -0.75611756E+001 -0.77683992E-001  0.16322584E-001  0.33253694E-001  0.86064148E-001
  0.10000000E+001 -0.75623763E+001  0.27791283E-001 -0.57923694E-001  0.57162236E-001  0.85994366E-001
  0.10000000E+001 -0.75685723E+001 -0.65517067E-001 -0.47721067E-002 -0.54934615E-001  0.85633352E-001
  0.10000000E+001 -0.76182762E+001 -0.35374222E-001 -0.74729102E-001 -0.50700646E-003  0.82680296E-001
  0.10000000E+001 -0.76310506E+001 -0.32287494E-001 -0.75269599E-001 -0.54106913E-003  0.81904137E-001
  0.10000000E+001 -0.76394156E+001 -0.42085681E-002 -0.54854870E-001 -0.59982234E-001  0.81391875E-001
  0.10000000E+001 -0.76452013E+001  0.36961349E-001 -0.39172929E-002  0.72008984E-001  0.81035672E-001
  0.10000000E+001 -0.76530436E+001 -0.71391693E-001 -0.61471737E-002 -0.36793970E-001  0.80550343E-001
  0.10000000E+001 -0.76724181E+001  0.32991649E-001 -0.67498246E-002 -0.71837341E-001  0.79338595E-001
  0.10000000E+001 -0.76763437E+001 -0.66256022E-001  0.39777992E-001 -0.16828779E-001  0.79090814E-001
  0.10000000E+001 -0.76889235E+001 -0.24121902E-001  0.51936050E-001  0.53388571E-001  0.78291500E-001
  0.10000000E+001 -0.77190670E+001 -0.35034862E-002 -0.21798835E-002  0.76230552E-001  0.76342146E-001
  0.10000000E+001 -0.77268524E+001  0.48309845E-001 -0.54514730E-001 -0.21084897E-001  0.75830533E-001
  0.10000000E+001 -0.77318163E+001  0.54251555E-001 -0.51457682E-001 -0.10464546E-001  0.75502523E-001
  0.10000000E+001 -0.77366938E+001  0.16690983E-002  0.58052704E-001 -0.47738386E-001  0.75178826E-001
  0.10000000E+001 -0.77377418E+001 -0.50119354E-001 -0.25940709E-001 -0.49563144E-001  0.75109089E-001
  0.10000000E+001 -0.77825704E+001 -0.29603057E-001  0.15754533E-001  0.63785132E-001  0.72063092E-001
  0.10000000E+001 -0.78171035E+001  0.22775358E-001 -0.64649597E-001  0.12225840E-001  0.69625846E-001
  0.10000000E+001 -0.78196616E+001  0.40054611E-002 -0.31107893E-001 -0.61955085E-001  0.69441899E-001
  0.10000000E+001 -0.78324103E+001  0.12577634E-001  0.57083797E-001  0.35748193E-001  0.68517809E-001
  0.10000000E+001 -0.78725954E+001 -0.49748426E-001  0.26078509E-001 -0.33731959E-001  0.65519765E-001
  0.10000000E+001 -0.78814231E+001  0.14393967E-001  0.46336588E-001  0.43015079E-001  0.64842599E-001
  0.10000000E+001 -0.79174788E+001 -0.16457825E-001 -0.16877827E-003  0.59775555E-001  0.62000044E-001
  0.10000000E+001 -0.79848841E+001 -0.17622548E-001  0.69909369E-002  0.53014389E-001  0.56302334E-001
  0.10000000E+001 -0.80336533E+001 -0.18618766E-001 -0.40048678E-001  0.27050054E-001  0.51790544E-001
  0.10000000E+001 -0.80404983E+001 -0.35790438E-001  0.30164344E-001  0.20566179E-001  0.51125442E-001
  0.10000000E+001 -0.80922981E+001 -0.40151047E-001  0.88693295E-002  0.20125621E-001  0.45780042E-001
  0.10000000E+001 -0.80930393E+001 -0.12579020E-001 -0.43369115E-001  0.70205966E-002  0.45699023E-001
  0.10000000E+001 -0.80981911E+001  0.96035815E-002  0.36229908E-001  0.25140562E-001  0.45131839E-001
  0.10000000E+001 -0.81123660E+001 -0.10491527E-001 -0.36313496E-001 -0.21596092E-001  0.43533129E-001
